{"learner":{"attributes":{},"feature_names":[],"feature_types":[],"gradient_booster":{"model":{"cats":{"enc":[],"feature_segments":[],"sorted_idx":[]},"gbtree_model_param":{"num_parallel_tree":"1","num_trees":"100"},"iteration_indptr":[0,1,2,3,4,5,6,7,8,9,10,11,12,13,14,15,16,17,18,19,20,21,22,23,24,25,26,27,28,29,30,31,32,33,34,35,36,37,38,39,40,41,42,43,44,45,46,47,48,49,50,51,52,53,54,55,56,57,58,59,60,61,62,63,64,65,66,67,68,69,70,71,72,73,74,75,76,77,78,79,80,81,82,83,84,85,86,87,88,89,90,91,92,93,94,95,96,97,98,99,100],"tree_info":[0,0,0,0,0,0,0,0,0,0,0,0,0,0,0,0,0,0,0,0,0,0,0,0,0,0,0,0,0,0,0,0,0,0,0,0,0,0,0,0,0,0,0,0,0,0,0,0,0,0,0,0,0,0,0,0,0,0,0,0,0,0,0,0,0,0,0,0,0,0,0,0,0,0,0,0,0,0,0,0,0,0,0,0,0,0,0,0,0,0,0,0,0,0,0,0,0,0,0,0],"trees":[{"base_weights":[5.8075486E-8,-1.8216565E0,1.3256744E0,-6.8010724E-1,-1.0347983E0,-1.6678573E0,1.4660321E0,-1.7599581E0,-2.6675013E-1,-1.9427665E0,4.275676E-1,1.1036973E0,1.6044496E0,-1.8151109E0,3.8128555E-1,-4.9407116E-1,5.030792E-1,-8.845406E-1,-6.238299E-1,8.37235E-1,5.0607526E-1,1.5039577E0,5.303199E-1,-1.2781336E0,-1.8440044E0,-6.413421E-2,-1.3036064E0,3.6910307E-2,-5.0917E-1,4.5122162E-1,1.647369E0,1.3955725E0,1.711926E0,-5.5005205E-1,-2.091523E-1,-6.034936E-1,-5.059658E-1,-3.3738682E-1,9.7199135E-2,-2.9704654E-1,-4.6909693E-1,2.7620903E-1,-3.761092E-1,-5.354825E-2,2.833432E-1,5.219323E-1,3.134298E-1,3.923921E-1,5.2757674E-1,4.1153556E-1,5.3220975E-1],"categories":[],"categories_nodes":[],"categories_segments":[],"categories_sizes":[],"default_left":[0,0,0,0,0,0,0,0,0,0,0,0,0,0,0,0,0,0,0,0,0,0,0,0,0,0,0,0,0,0,0,0,0,0,0,0,0,0,0,0,0,0,0,0,0,0,0,0,0,0,0],"id":0,"left_children":[1,3,5,-1,7,9,11,13,15,17,-1,19,21,23,-1,25,-1,27,-1,29,-1,31,-1,33,35,37,39,41,-1,43,45,47,49,-1,-1,-1,-1,-1,-1,-1,-1,-1,-1,-1,-1,-1,-1,-1,-1,-1,-1],"loss_changes":[4.9396064E3,2.9957837E2,4.9987622E2,0E0,1.7398914E2,4.8253128E1,5.497339E1,2.9209656E1,6.856148E1,5.3264923E0,0E0,4.768759E1,1.0738281E1,1.01867676E-1,0E0,4.795366E1,0E0,5.6096826E0,0E0,6.769594E1,0E0,9.154053E0,0E0,2.3839016E0,5.169678E-1,3.790133E1,2.3499222E0,6.2301655E0,0E0,4.6636322E1,2.09404E0,8.577515E0,1.179657E0,0E0,0E0,0E0,0E0,0E0,0E0,0E0,0E0,0E0,0E0,0E0,0E0,0E0,0E0,0E0,0E0,0E0,0E0],"parents":[2147483647,0,0,1,1,2,2,4,4,5,5,6,6,7,7,8,8,9,9,11,11,12,12,13,13,15,15,17,17,19,19,21,21,23,23,24,24,25,25,26,26,27,27,29,29,30,30,31,31,32,32],"right_children":[2,4,6,-1,8,10,12,14,16,18,-1,20,22,24,-1,26,-1,28,-1,30,-1,32,-1,34,36,38,40,42,-1,44,46,48,50,-1,-1,-1,-1,-1,-1,-1,-1,-1,-1,-1,-1,-1,-1,-1,-1,-1,-1],"split_conditions":[1E0,0E0,0E0,-6.8010724E-1,0E0,1E0,0E0,1E0,1E0,1E0,4.275676E-1,1E0,1E0,1E0,3.8128555E-1,1E0,5.030792E-1,1E0,-6.238299E-1,0E0,5.0607526E-1,0E0,5.303199E-1,1E0,1E0,0E0,1E0,1E0,-5.0917E-1,1E0,1E0,1E0,1E0,-5.5005205E-1,-2.091523E-1,-6.034936E-1,-5.059658E-1,-3.3738682E-1,9.7199135E-2,-2.9704654E-1,-4.6909693E-1,2.7620903E-1,-3.761092E-1,-5.354825E-2,2.833432E-1,5.219323E-1,3.134298E-1,3.923921E-1,5.2757674E-1,4.1153556E-1,5.3220975E-1],"split_indices":[7,13,13,0,14,5,14,5,5,16,0,13,13,21,0,8,0,19,0,15,0,15,0,0,8,6,23,8,0,23,18,5,24,0,0,0,0,0,0,0,0,0,0,0,0,0,0,0,0,0,0],"split_type":[0,0,0,0,0,0,0,0,0,0,0,0,0,0,0,0,0,0,0,0,0,0,0,0,0,0,0,0,0,0,0,0,0,0,0,0,0,0,0,0,0,0,0,0,0,0,0,0,0,0,0],"sum_hessian":[2.0434504E3,8.605558E2,1.1828945E3,5.483209E2,3.122349E2,5.2490948E1,1.1304037E3,1.5993721E2,1.5229768E2,4.8547966E1,3.942982E0,3.1494568E2,8.1545795E2,1.5747284E2,2.4643638E0,1.3701862E2,1.5279055E1,6.407346E0,4.214062E1,2.1784975E2,9.709593E1,5.1110904E2,3.043489E2,1.03503275E1,1.4712251E2,9.019571E1,4.682291E1,3.4501092E0,2.9572365E0,1.4860114E2,6.924862E1,3.4106793E2,1.7004109E2,4.1894183E0,6.160909E0,6.555208E1,8.157044E1,2.3657892E1,6.653782E1,2.3411455E1,2.3411455E1,2.2179275E0,1.2321819E0,6.555208E1,8.304906E1,5.840542E1,1.0843201E1,2.784731E2,6.2594837E1,2.9818802E1,1.4022229E2],"tree_param":{"num_deleted":"0","num_feature":"25","num_nodes":"51","size_leaf_vector":"1"}},{"base_weights":[1.35262525E-2,-1.308795E0,1.0486188E0,-4.922479E-1,-7.3493195E-1,-1.2098053E0,1.1627507E0,-1.2495878E0,-1.8803519E-1,-1.4110583E0,3.5491338E-1,8.5341805E-1,1.2855214E0,-1.2899315E0,3.2030296E-1,-4.8514464E-1,7.829123E-1,-4.8957795E-1,-9.762825E-1,5.240364E-1,1.2013872E0,1.1916766E0,4.327572E-1,-1.4629236E0,-1.1765263E0,-6.832827E-1,5.427198E-1,1.0704224E0,-4.9250108E-1,-4.629567E-1,-1.3630235E-1,2.4312265E-1,3.935264E-1,1.1202953E0,4.414878E-1,1.0915827E0,1.3903055E0,-3.7742862E-1,-4.9660692E-1,-1.5281755E-1,-3.6467078E-1,3.3655515E-1,-2.3837289E-1,2.314532E-1,-3.410834E-1,-4.019227E-1,3.7452558E-1,-3.8511753E-1,1.7354526E-1,-2.5004426E-3,3.8342798E-1,2.8510636E-1,4.0386006E-1,4.3975377E-1,3.0187932E-1,3.234365E-1,4.3506974E-1],"categories":[],"categories_nodes":[],"categories_segments":[],"categories_sizes":[],"default_left":[0,0,0,0,0,0,0,0,0,0,0,0,0,0,0,0,0,0,0,0,0,0,0,0,0,0,0,0,0,0,0,0,0,0,0,0,0,0,0,0,0,0,0,0,0,0,0,0,0,0,0,0,0,0,0,0,0],"id":1,"left_children":[1,3,5,-1,7,9,11,13,15,17,-1,19,21,23,-1,25,27,-1,29,31,33,35,-1,37,39,41,43,45,-1,-1,47,49,-1,51,-1,53,55,-1,-1,-1,-1,-1,-1,-1,-1,-1,-1,-1,-1,-1,-1,-1,-1,-1,-1,-1,-1],"loss_changes":[2.617712E3,1.5880103E2,2.7792004E2,0E0,8.690619E1,2.6756836E1,3.770276E1,1.6271988E1,4.401948E1,3.065094E0,0E0,3.2981735E1,9.028076E0,1.3598938E0,0E0,2.4086674E1,2.6731943E1,0E0,8.756632E0,3.3409775E1,1.4594421E0,7.673218E0,0E0,2.0665741E-1,1.9847412E0,2.0593998E1,8.323575E0,1.5672634E1,0E0,0E0,7.865488E0,2.9571016E1,0E0,3.0695953E0,0E0,8.488831E0,1.2660217E0,0E0,0E0,0E0,0E0,0E0,0E0,0E0,0E0,0E0,0E0,0E0,0E0,0E0,0E0,0E0,0E0,0E0,0E0,0E0,0E0],"parents":[2147483647,0,0,1,1,2,2,4,4,5,5,6,6,7,7,8,8,9,9,11,11,12,12,13,13,15,15,16,16,18,18,19,19,20,20,21,21,23,23,24,24,25,25,26,26,27,27,30,30,31,31,33,33,35,35,36,36],"right_children":[2,4,6,-1,8,10,12,14,16,18,-1,20,22,24,-1,26,28,-1,30,32,34,36,-1,38,40,42,44,46,-1,-1,48,50,-1,52,-1,54,56,-1,-1,-1,-1,-1,-1,-1,-1,-1,-1,-1,-1,-1,-1,-1,-1,-1,-1,-1,-1],"split_conditions":[1E0,0E0,0E0,-4.922479E-1,0E0,1E0,0E0,1E0,1E0,0E0,3.5491338E-1,1E0,1E0,1E0,3.2030296E-1,1E0,0E0,-4.8957795E-1,1E0,1E0,1E0,0E0,4.327572E-1,1E0,1E0,1E0,1E0,1E0,-4.9250108E-1,-4.629567E-1,1E0,0E0,3.935264E-1,0E0,4.414878E-1,1E0,1E0,-3.7742862E-1,-4.9660692E-1,-1.5281755E-1,-3.6467078E-1,3.3655515E-1,-2.3837289E-1,2.314532E-1,-3.410834E-1,-4.019227E-1,3.7452558E-1,-3.8511753E-1,1.7354526E-1,-2.5004426E-3,3.8342798E-1,2.8510636E-1,4.0386006E-1,4.3975377E-1,3.0187932E-1,3.234365E-1,4.3506974E-1],"split_indices":[7,13,13,0,14,5,14,5,13,14,0,6,13,0,0,1,7,0,12,13,5,15,0,12,9,2,8,19,0,0,2,15,0,15,0,11,24,0,0,0,0,0,0,0,0,0,0,0,0,0,0,0,0,0,0,0,0],"split_type":[0,0,0,0,0,0,0,0,0,0,0,0,0,0,0,0,0,0,0,0,0,0,0,0,0,0,0,0,0,0,0,0,0,0,0,0,0,0,0,0,0,0,0,0,0,0,0,0,0,0,0,0,0,0,0,0,0],"sum_hessian":[1.9105159E3,8.3875256E2,1.0717632E3,5.3015247E2,3.086001E2,5.10954E1,1.02066785E3,1.5832443E2,1.5027568E2,4.7509842E1,3.585561E0,2.922549E2,7.284129E2,1.5605092E2,2.2735138E0,1.1544876E2,3.4826923E1,2.967919E1,1.7830652E1,1.514248E2,1.4083012E2,4.6128198E2,2.6713092E2,5.707967E1,9.8971245E1,9.707179E1,1.8376968E1,3.163421E1,3.1927133E0,1.0145939E1,7.6847134E0,1.12584045E2,3.884075E1,1.1228251E2,2.8547619E1,3.1103802E2,1.5024396E2,3.1300644E1,2.5779026E1,6.2485204E0,9.2722725E1,5.109987E0,9.196181E1,1.6649746E1,1.7272229E0,1.7267162E0,2.9907495E1,2.6441662E0,5.040547E0,9.137535E1,2.1208698E1,6.704992E1,4.523259E1,5.4738373E1,2.5629965E2,2.7254526E1,1.22989426E2],"tree_param":{"num_deleted":"0","num_feature":"25","num_nodes":"57","size_leaf_vector":"1"}},{"base_weights":[1.4599229E-2,-1.0670155E0,8.773432E-1,-4.1715416E-1,-5.6008136E-1,-9.998539E-1,9.7408193E-1,-6.5979004E-1,3.8900086E-1,-1.1709443E0,3.0874217E-1,8.300698E-1,3.7844384E-1,-1.01673E0,-2.735698E-1,-4.1032672E-1,-8.002878E-1,6.6837114E-1,1.2031969E0,-1.0838271E0,-7.650419E-1,-7.640198E-1,5.9287515E-3,-3.8774866E-1,-1.2802514E-1,2.2974916E-1,8.913018E-1,9.0266854E-1,3.859669E-1,-1.5489134E-1,-3.3394805E-1,-4.0457603E-1,-1.8117283E-1,-1.856336E-1,-4.4494426E-1,-2.3419772E-1,9.251219E-2,-2.4153693E-1,2.321032E-1,1.8210214E-2,4.4677863E-1,2.4001673E-1,3.9088053E-1,3.8035822E-1,1.9943385E-1],"categories":[],"categories_nodes":[],"categories_segments":[],"categories_sizes":[],"default_left":[0,0,0,0,0,0,0,0,0,0,0,0,0,0,0,0,0,0,0,0,0,0,0,0,0,0,0,0,0,0,0,0,0,0,0,0,0,0,0,0,0,0,0,0,0],"id":2,"left_children":[1,3,5,-1,7,9,11,13,-1,15,-1,17,-1,19,21,-1,23,25,27,29,31,33,35,-1,37,39,41,43,-1,-1,-1,-1,-1,-1,-1,-1,-1,-1,-1,-1,-1,-1,-1,-1,-1],"loss_changes":[1.559249E3,1.2080994E2,1.6977039E2,0E0,5.4637276E1,1.718983E1,3.555963E1,3.781997E1,0E0,2.0373917E0,0E0,3.4921783E1,0E0,1.5900879E0,1.838743E1,0E0,5.5592127E0,4.0410095E1,3.2922974E0,1.2681732E0,2.3404026E0,4.1676254E0,2.0798815E1,0E0,5.765338E0,2.999835E1,9.288208E0,2.8019676E0,0E0,0E0,0E0,0E0,0E0,0E0,0E0,0E0,0E0,0E0,0E0,0E0,0E0,0E0,0E0,0E0,0E0],"parents":[2147483647,0,0,1,1,2,2,4,4,5,5,6,6,7,7,9,9,11,11,13,13,14,14,16,16,17,17,18,18,19,19,20,20,21,21,22,22,24,24,25,25,26,26,27,27],"right_children":[2,4,6,-1,8,10,12,14,-1,16,-1,18,-1,20,22,-1,24,26,28,30,32,34,36,-1,38,40,42,44,-1,-1,-1,-1,-1,-1,-1,-1,-1,-1,-1,-1,-1,-1,-1,-1,-1],"split_conditions":[1E0,0E0,0E0,-4.1715416E-1,1E0,1E0,1E0,0E0,3.8900086E-1,0E0,3.0874217E-1,0E0,3.7844384E-1,1E0,1E0,-4.1032672E-1,1E0,0E0,1E0,1E0,1E0,0E0,0E0,-3.8774866E-1,1E0,1E0,1E0,1E0,3.859669E-1,-1.5489134E-1,-3.3394805E-1,-4.0457603E-1,-1.8117283E-1,-1.856336E-1,-4.4494426E-1,-2.3419772E-1,9.251219E-2,-2.4153693E-1,2.321032E-1,1.8210214E-2,4.4677863E-1,2.4001673E-1,3.9088053E-1,3.8035822E-1,1.9943385E-1],"split_indices":[7,13,13,0,5,5,13,14,0,14,0,15,0,6,12,0,12,14,24,21,11,7,6,0,0,5,5,1,0,0,0,0,0,0,0,0,0,0,0,0,0,0,0,0,0],"split_type":[0,0,0,0,0,0,0,0,0,0,0,0,0,0,0,0,0,0,0,0,0,0,0,0,0,0,0,0,0,0,0,0,0,0,0,0,0,0,0,0,0,0,0,0,0],"sum_hessian":[1.6689371E3,7.404298E2,9.285074E2,4.5092847E2,2.8950134E2,4.5046818E1,8.834606E2,2.7535904E2,1.4142303E1,4.1933743E1,3.113075E0,5.91136E2,2.9232455E2,1.4225566E2,1.331034E2,2.5633028E1,1.6300714E1,4.1436E2,1.7677602E2,1.09703674E2,3.2551987E1,4.7688488E1,8.54149E1,8.877966E0,7.4227486E0,1.403157E2,2.7404428E2,4.0954597E1,1.3582143E2,6.3056817E0,1.0339799E2,5.448976E0,2.710301E1,4.1223164E1,6.465324E0,2.3282228E1,6.2132675E1,4.3005376E0,3.1222115E0,1.2463563E2,1.5680069E1,2.267292E2,4.7315083E1,1.4446943E1,2.6507652E1],"tree_param":{"num_deleted":"0","num_feature":"25","num_nodes":"45","size_leaf_vector":"1"}},{"base_weights":[1.3024548E-2,-9.104997E-1,7.494168E-1,-3.767692E-1,-4.3782026E-1,-8.640164E-1,8.3224374E-1,-5.1444936E-1,3.4942505E-1,-1.0179294E0,2.7519938E-1,6.859917E-1,3.4616596E-1,-8.2684004E-1,-2.0510887E-1,-3.6637017E-1,-6.659525E-1,5.3137374E-1,1.0854299E0,-1.0279571E0,-7.037905E-1,-1.0342738E-1,-1.1132331E0,-3.4292376E-1,-9.492656E-2,4.166565E-1,3.7203723E-1,7.5805664E-1,3.5579866E-1,-2.404404E-1,-3.803221E-1,-2.602077E-1,-1.5972301E-1,-8.191395E-2,2.0411974E-1,-4.417368E-1,-8.0536455E-2,-2.9395112E-1,1.1857535E-1,1.2854182E-2,1.9364496E-1,3.4373847E-1,1.590155E-1],"categories":[],"categories_nodes":[],"categories_segments":[],"categories_sizes":[],"default_left":[0,0,0,0,0,0,0,0,0,0,0,0,0,0,0,0,0,0,0,0,0,0,0,0,0,0,0,0,0,0,0,0,0,0,0,0,0,0,0,0,0,0,0],"id":3,"left_children":[1,3,5,-1,7,9,11,13,-1,15,-1,17,-1,19,21,-1,23,25,27,29,31,33,35,-1,37,39,-1,41,-1,-1,-1,-1,-1,-1,-1,-1,-1,-1,-1,-1,-1,-1,-1],"loss_changes":[9.6941254E2,1.0269403E2,1.0670065E2,0E0,3.357569E1,1.1685522E1,3.4717163E1,2.4662727E1,0E0,1.8036423E0,0E0,3.1623077E1,0E0,2.432434E0,1.1930096E1,0E0,4.138682E0,3.0203201E1,3.8594513E0,1.4949265E0,1.8449745E0,1.59289665E1,3.5596447E0,0E0,3.938369E0,2.7917564E1,0E0,2.6404972E0,0E0,0E0,0E0,0E0,0E0,0E0,0E0,0E0,0E0,0E0,0E0,0E0,0E0,0E0,0E0],"parents":[2147483647,0,0,1,1,2,2,4,4,5,5,6,6,7,7,9,9,11,11,13,13,14,14,16,16,17,17,18,18,19,19,20,20,21,21,22,22,24,24,25,25,27,27],"right_children":[2,4,6,-1,8,10,12,14,-1,16,-1,18,-1,20,22,-1,24,26,28,30,32,34,36,-1,38,40,-1,42,-1,-1,-1,-1,-1,-1,-1,-1,-1,-1,-1,-1,-1,-1,-1],"split_conditions":[1E0,0E0,0E0,-3.767692E-1,1E0,1E0,1E0,0E0,3.4942505E-1,0E0,2.7519938E-1,0E0,3.4616596E-1,1E0,0E0,-3.6637017E-1,1E0,1E0,1E0,1E0,0E0,1E0,1E0,-3.4292376E-1,1E0,0E0,3.7203723E-1,1E0,3.5579866E-1,-2.404404E-1,-3.803221E-1,-2.602077E-1,-1.5972301E-1,-8.191395E-2,2.0411974E-1,-4.417368E-1,-8.0536455E-2,-2.9395112E-1,1.1857535E-1,1.2854182E-2,1.9364496E-1,3.4373847E-1,1.590155E-1],"split_indices":[7,13,13,0,5,5,13,14,0,14,0,15,0,0,7,0,12,5,24,12,6,13,6,0,2,14,0,1,0,0,0,0,0,0,0,0,0,0,0,0,0,0,0],"split_type":[0,0,0,0,0,0,0,0,0,0,0,0,0,0,0,0,0,0,0,0,0,0,0,0,0,0,0,0,0,0,0,0,0,0,0,0,0,0,0,0,0,0,0],"sum_hessian":[1.4234438E3,6.313805E2,7.920633E2,3.6384998E2,2.6753052E2,3.8215233E1,7.538481E2,2.5596994E2,1.1560566E1,3.557042E1,2.6448143E0,5.2036786E2,2.3348022E2,1.2652473E2,1.2944522E2,2.0981636E1,1.4588782E1,3.7683112E2,1.4353674E2,4.523571E1,8.128902E1,1.1741258E2,1.2032641E1,7.40209E0,7.1866927E0,3.2570145E2,5.1129646E1,3.573753E1,1.0779922E2,2.5495861E1,1.973985E1,3.9514576E1,4.177444E1,9.706046E1,2.0352118E1,7.9212856E0,4.1113553E0,2.2057476E0,4.980945E0,1.2412279E2,2.0157867E2,1.1742792E1,2.3994738E1],"tree_param":{"num_deleted":"0","num_feature":"25","num_nodes":"43","size_leaf_vector":"1"}},{"base_weights":[1.0690397E-2,-7.883599E-1,6.421841E-1,-3.5214567E-1,-3.4168345E-1,-7.725041E-1,7.132105E-1,-4.007805E-1,3.217662E-1,-9.162528E-1,2.4856225E-1,5.65979E-1,3.2322192E-1,-6.782819E-1,-1.5119815E-1,-3.0607927E-1,-3.0623317E-1,4.2014804E-1,9.9484396E-1,-8.8411885E-1,-5.601276E-1,-5.147415E-1,4.7335938E-2,-2.8297332E-1,4.2673624E-1,3.1939825E-1,3.467105E-1,6.370022E-1,3.3578196E-1,-1.9600445E-1,-3.4637582E-1,-2.1048929E-1,-1.0175824E-1,-1.2090832E-1,-4.073895E-1,-1.5796354E-1,7.756488E-2,2.8904058E-2,1.7787994E-1,2.8982734E-2,1.9892806E-1,3.1786045E-1,1.2550762E-1],"categories":[],"categories_nodes":[],"categories_segments":[],"categories_sizes":[],"default_left":[0,0,0,0,0,0,0,0,0,0,0,0,0,0,0,0,0,0,0,0,0,0,0,0,0,0,0,0,0,0,0,0,0,0,0,0,0,0,0,0,0,0,0],"id":4,"left_children":[1,3,5,-1,7,9,11,13,-1,15,-1,17,-1,19,21,23,-1,25,27,29,31,33,35,-1,37,39,-1,41,-1,-1,-1,-1,-1,-1,-1,-1,-1,-1,-1,-1,-1,-1,-1],"loss_changes":[6.106017E2,9.1571594E1,6.8465485E1,0E0,2.1228205E1,8.306225E0,3.3927917E1,1.649187E1,0E0,1.6369629E0,0E0,2.840039E1,0E0,2.2570496E0,9.221826E0,3.1566489E0,0E0,2.5241524E1,4.460701E0,1.7136478E0,2.0950089E0,3.7006254E0,1.0237487E1,0E0,1.3131326E-1,2.3316257E1,0E0,2.5407305E0,0E0,0E0,0E0,0E0,0E0,0E0,0E0,0E0,0E0,0E0,0E0,0E0,0E0,0E0,0E0],"parents":[2147483647,0,0,1,1,2,2,4,4,5,5,6,6,7,7,9,9,11,11,13,13,14,14,15,15,17,17,18,18,19,19,20,20,21,21,22,22,24,24,25,25,27,27],"right_children":[2,4,6,-1,8,10,12,14,-1,16,-1,18,-1,20,22,24,-1,26,28,30,32,34,36,-1,38,40,-1,42,-1,-1,-1,-1,-1,-1,-1,-1,-1,-1,-1,-1,-1,-1,-1],"split_conditions":[1E0,0E0,0E0,-3.5214567E-1,1E0,1E0,1E0,0E0,3.217662E-1,1E0,2.4856225E-1,0E0,3.2322192E-1,1E0,1E0,1E0,-3.0623317E-1,1E0,1E0,1E0,1E0,1E0,0E0,-2.8297332E-1,1E0,1E0,3.467105E-1,1E0,3.3578196E-1,-1.9600445E-1,-3.4637582E-1,-2.1048929E-1,-1.0175824E-1,-1.2090832E-1,-4.073895E-1,-1.5796354E-1,7.756488E-2,2.8904058E-2,1.7787994E-1,2.8982734E-2,1.9892806E-1,3.1786045E-1,1.2550762E-1],"split_indices":[7,13,13,0,5,5,13,14,0,19,0,15,0,0,12,14,0,5,24,12,12,18,6,0,24,6,0,1,0,0,0,0,0,0,0,0,0,0,0,0,0,0,0],"split_type":[0,0,0,0,0,0,0,0,0,0,0,0,0,0,0,0,0,0,0,0,0,0,0,0,0,0,0,0,0,0,0,0,0,0,0,0,0,0,0,0,0,0,0],"sum_hessian":[1.208079E3,5.3318E2,6.74899E2,2.853283E2,2.4785167E2,3.179223E1,6.4310675E2,2.3859793E2,9.253738E0,2.9565435E1,2.2267964E0,4.5978574E2,1.8332101E2,1.121665E2,1.2643144E2,4.898453E0,2.4666983E1,3.445909E2,1.15194824E2,3.854113E1,7.362536E1,4.409489E1,8.233655E1,2.4666286E0,2.4318244E0,3.043394E2,4.0251545E1,3.1299904E1,8.389492E1,2.2639803E1,1.5901328E1,4.3554104E1,3.0071259E1,4.024149E1,3.8534012E0,2.1749315E1,6.058723E1,1.3425773E0,1.0892471E0,1.8542488E2,1.189145E2,9.361904E0,2.1938E1],"tree_param":{"num_deleted":"0","num_feature":"25","num_nodes":"43","size_leaf_vector":"1"}},{"base_weights":[8.405204E-3,-6.855978E-1,5.4484E-1,-3.360076E-1,-2.678016E-1,-6.6787386E-1,6.0427815E-1,-3.682687E-1,3.815611E-1,-7.998273E-1,2.261336E-1,4.5984942E-1,1.016471E0,-4.0450126E-1,2.844739E-1,9.9228376E-1,-3.9916537E-3,-3.1914824E-1,-4.287934E-1,3.2620052E-1,9.1657203E-1,8.654812E-1,3.2026166E-1,-9.2492366E-1,-3.2843873E-1,1.6746236E-1,1.3047414E0,-3.4560862E-1,4.2779934E-1,-2.9163027E-1,6.7097105E-2,1.0035005E0,2.174425E-1,5.317147E-1,3.213666E-1,5.3672165E-1,1.0295645E0,-3.5104513E-1,2.8642994E-1,1.0646029E-1,-1.21868975E-1,-7.607623E-2,1.6990413E-1,4.399083E-1,1.625938E-1,4.068592E-1,4.2189248E-2,-1.5356018E-1,2.0775543E-1,3.595776E-1,6.617306E-2,-3.9940614E-2,1.3724735E-1,2.9748887E-1,9.771598E-2,-2.5063971E-2,2.4689646E-1,2.5235135E-2,3.1960523E-1],"categories":[],"categories_nodes":[],"categories_segments":[],"categories_sizes":[],"default_left":[0,0,0,0,0,0,0,0,0,0,0,0,0,0,0,0,0,0,0,0,0,0,0,0,0,0,0,0,0,0,0,0,0,0,0,0,0,0,0,0,0,0,0,0,0,0,0,0,0,0,0,0,0,0,0,0,0,0,0],"id":5,"left_children":[1,3,5,-1,7,9,11,13,15,17,-1,19,21,23,-1,25,27,-1,29,31,33,35,-1,37,39,41,43,-1,45,-1,47,49,51,53,-1,55,57,-1,-1,-1,-1,-1,-1,-1,-1,-1,-1,-1,-1,-1,-1,-1,-1,-1,-1,-1,-1,-1,-1],"loss_changes":[3.853427E2,8.1605576E1,4.248477E1,0E0,1.5233685E1,5.808876E0,3.269507E1,9.964775E0,7.4185185E0,2.0788383E0,0E0,2.4992233E1,1.842041E-1,7.4620132E0,0E0,2.9231396E0,1.0555232E1,0E0,3.415239E0,2.3507526E1,4.9801865E0,1.6917648E0,0E0,1.2394875E1,9.324905E0,8.987824E-1,2.769947E-1,0E0,3.9363723E0,0E0,3.0470877E0,6.500145E0,2.3523752E1,2.397397E0,0E0,2.8992357E0,8.125534E-1,0E0,0E0,0E0,0E0,0E0,0E0,0E0,0E0,0E0,0E0,0E0,0E0,0E0,0E0,0E0,0E0,0E0,0E0,0E0,0E0,0E0,0E0],"parents":[2147483647,0,0,1,1,2,2,4,4,5,5,6,6,7,7,8,8,9,9,11,11,12,12,13,13,15,15,16,16,18,18,19,19,20,20,21,21,23,23,24,24,25,25,26,26,28,28,30,30,31,31,32,32,33,33,35,35,36,36],"right_children":[2,4,6,-1,8,10,12,14,16,18,-1,20,22,24,-1,26,28,-1,30,32,34,36,-1,38,40,42,44,-1,46,-1,48,50,52,54,-1,56,58,-1,-1,-1,-1,-1,-1,-1,-1,-1,-1,-1,-1,-1,-1,-1,-1,-1,-1,-1,-1,-1,-1],"split_conditions":[1E0,0E0,0E0,-3.360076E-1,1E0,1E0,1E0,1E0,1E0,0E0,2.261336E-1,0E0,1E0,1E0,2.844739E-1,1E0,1E0,-3.1914824E-1,1E0,1E0,1E0,1E0,3.2026166E-1,1E0,1E0,1E0,1E0,-3.4560862E-1,1E0,-2.9163027E-1,1E0,1E0,0E0,1E0,3.213666E-1,0E0,1E0,-3.5104513E-1,2.8642994E-1,1.0646029E-1,-1.21868975E-1,-7.607623E-2,1.6990413E-1,4.399083E-1,1.625938E-1,4.068592E-1,4.2189248E-2,-1.5356018E-1,2.0775543E-1,3.595776E-1,6.617306E-2,-3.9940614E-2,1.3724735E-1,2.9748887E-1,9.771598E-2,-2.5063971E-2,2.4689646E-1,2.5235135E-2,3.1960523E-1],"split_indices":[7,13,13,0,14,5,13,5,23,14,0,15,0,16,0,0,12,0,12,2,24,12,0,1,11,13,13,0,9,0,0,4,14,1,0,14,20,0,0,0,0,0,0,0,0,0,0,0,0,0,0,0,0,0,0,0,0,0,0],"split_type":[0,0,0,0,0,0,0,0,0,0,0,0,0,0,0,0,0,0,0,0,0,0,0,0,0,0,0,0,0,0,0,0,0,0,0,0,0,0,0,0,0,0,0,0,0,0,0,0,0,0,0,0,0,0,0,0,0,0,0],"sum_hessian":[1.0330647E3,4.5026465E2,5.8280005E2,2.1991483E2,2.3034984E2,2.675164E1,5.560484E2,1.9986095E2,3.0488895E1,2.4879772E1,1.8718683E0,4.1333505E2,1.4271333E2,1.9518198E2,4.6789656E0,1.1190025E1,1.929887E1,1.3445649E1,1.1434123E1,3.2109E2,9.224505E1,4.0605305E1,1.0210803E2,2.3466097E1,1.7171588E2,3.496353E0,7.693672E0,4.818778E0,1.4480092E1,4.9979534E0,6.4361696E0,4.328735E1,2.7780264E2,2.7714266E1,6.453078E1,1.4940785E1,2.566452E1,2.1091898E1,2.374199E0,1.7186897E1,1.5452899E2,1.8781244E0,1.6182287E0,5.587349E0,2.1063235E0,2.541365E0,1.1938727E1,3.4364994E0,2.9996705E0,3.422751E1,9.059839E0,1.130885E2,1.6471416E2,7.393435E0,2.0320831E1,4.941638E0,9.999147E0,1.0581987E0,2.4606321E1],"tree_param":{"num_deleted":"0","num_feature":"25","num_nodes":"59","size_leaf_vector":"1"}},{"base_weights":[9.164079E-3,-1.0293844E0,2.9003975E-1,-1.0473416E0,2.0656171E-1,-1.9719273E-1,5.088357E-1,-3.2488537E-1,-7.224797E-1,-4.5795152E-1,8.3295023E-4,3.9707798E-1,3.2607773E-1,-3.9243075E-1,-3.105627E-1,-7.12599E-1,-3.2620606E-1,7.893451E-2,-8.2950747E-1,2.680487E-1,8.7025905E-1,-2.6490584E-1,-4.4222813E-2,-4.736747E-1,-3.1428844E-1,-4.9217945E-1,-8.9187264E-2,-5.7651557E-2,6.3170457E-1,-3.7654904E-1,-2.9149372E-2,1.6457397E-1,8.232676E-1,4.0747353E-1,3.1290168E-1,-1.9529706E-1,1.5751599E-1,1.8592702E-1,-1.9610347E-1,-2.3977318E-1,-4.2411976E-2,4.792419E-3,-2.0456941E-1,-5.995946E-2,1.414754E-1,-3.2420236E-1,2.4053341E-1,-2.9365915E-1,2.4103655E-1,2.5393432E-1,2.30394E-2,1.0861166E-1,2.9122344E-1,2.8404933E-1,5.225375E-2],"categories":[],"categories_nodes":[],"categories_segments":[],"categories_sizes":[],"default_left":[0,0,0,0,0,0,0,0,0,0,0,0,0,0,0,0,0,0,0,0,0,0,0,0,0,0,0,0,0,0,0,0,0,0,0,0,0,0,0,0,0,0,0,0,0,0,0,0,0,0,0,0,0,0,0],"id":6,"left_children":[1,3,5,7,-1,9,11,-1,13,15,17,19,-1,21,-1,23,25,27,29,31,33,-1,35,37,-1,39,41,43,45,-1,47,49,51,53,-1,-1,-1,-1,-1,-1,-1,-1,-1,-1,-1,-1,-1,-1,-1,-1,-1,-1,-1,-1,-1],"loss_changes":[2.6160104E2,6.6105804E0,7.534932E1,1.4078217E0,0E0,1.1333027E1,3.1057587E1,0E0,1.8343449E0,2.9456406E0,8.219622E0,2.4800034E1,0E0,2.0402508E0,0E0,2.0216665E0,2.4846268E0,8.782415E0,3.6757298E0,1.845643E1,6.562561E0,0E0,3.1644816E0,4.378261E0,0E0,3.9353628E0,1.7370373E0,7.1543803E0,7.575145E0,0E0,4.5875645E0,1.633603E1,3.0894928E0,3.0310245E0,0E0,0E0,0E0,0E0,0E0,0E0,0E0,0E0,0E0,0E0,0E0,0E0,0E0,0E0,0E0,0E0,0E0,0E0,0E0,0E0,0E0],"parents":[2147483647,0,0,1,1,2,2,3,3,5,5,6,6,8,8,9,9,10,10,11,11,13,13,15,15,16,16,17,17,18,18,19,19,20,20,22,22,23,23,25,25,26,26,27,27,28,28,30,30,31,31,32,32,33,33],"right_children":[2,4,6,8,-1,10,12,-1,14,16,18,20,-1,22,-1,24,26,28,30,32,34,-1,36,38,-1,40,42,44,46,-1,48,50,52,54,-1,-1,-1,-1,-1,-1,-1,-1,-1,-1,-1,-1,-1,-1,-1,-1,-1,-1,-1,-1,-1],"split_conditions":[0E0,1E0,1E0,1E0,2.0656171E-1,0E0,1E0,-3.2488537E-1,1E0,1E0,0E0,0E0,3.2607773E-1,0E0,-3.105627E-1,1E0,1E0,1E0,0E0,1E0,1E0,-2.6490584E-1,1E0,1E0,-3.1428844E-1,0E0,1E0,0E0,1E0,-3.7654904E-1,1E0,1E0,1E0,1E0,3.1290168E-1,-1.9529706E-1,1.5751599E-1,1.8592702E-1,-1.9610347E-1,-2.3977318E-1,-4.2411976E-2,4.792419E-3,-2.0456941E-1,-5.995946E-2,1.414754E-1,-3.2420236E-1,2.4053341E-1,-2.9365915E-1,2.4103655E-1,2.5393432E-1,2.30394E-2,1.0861166E-1,2.9122344E-1,2.8404933E-1,5.225375E-2],"split_indices":[13,5,7,7,0,14,5,0,8,0,7,15,0,14,0,12,23,13,1,13,24,0,24,3,0,6,13,15,19,0,6,2,0,1,0,0,0,0,0,0,0,0,0,0,0,0,0,0,0,0,0,0,0,0,0],"split_type":[0,0,0,0,0,0,0,0,0,0,0,0,0,0,0,0,0,0,0,0,0,0,0,0,0,0,0,0,0,0,0,0,0,0,0,0,0,0,0,0,0,0,0,0,0,0,0,0,0,0,0,0,0,0,0],"sum_hessian":[8.9478265E2,1.8991177E2,7.048709E2,1.883335E2,1.5782748E0,2.184678E2,4.864031E2,1.6762567E2,2.070782E1,9.3730965E1,1.2473684E2,4.0901776E2,7.738534E1,1.1171974E1,9.535848E0,3.045546E1,6.3275505E1,1.14839966E2,9.896874E0,3.226127E2,8.6405075E1,4.000205E0,7.1717687E0,1.9186522E1,1.1268938E1,3.6582157E1,2.6693346E1,9.28043E1,2.2035666E1,6.089847E0,3.807027E0,2.7302594E2,4.958675E1,2.4399076E1,6.2006E1,3.4020872E0,3.7696815E0,2.3667386E0,1.6819784E1,1.88256E1,1.775656E1,2.3497364E1,3.195983E0,7.363885E1,1.9165455E1,1.5071201E0,2.0528545E1,1.696379E0,2.1106482E0,3.0151955E1,2.4287398E2,1.2850918E1,3.6735832E1,6.443563E0,1.7955515E1],"tree_param":{"num_deleted":"0","num_feature":"25","num_nodes":"55","size_leaf_vector":"1"}},{"base_weights":[6.1211847E-3,-9.917562E-1,2.3447789E-1,-1.0110154E0,1.8914852E-1,1.4055213E-1,3.179354E-1,-3.1688458E-1,-6.4656496E-1,-1.9204254E-1,3.1821162E-1,-2.906666E-1,-3.0086806E-1,-1.1078614E-1,-8.6657E-1,1.17977515E-1,5.883887E-1,1.4236663E-1,-5.524944E-1,-3.6928433E-1,3.2589234E-2,1.8209697E-1,-1.1913612E0,-1.8821691E-1,3.4930873E-1,1.5449177E-1,7.2836435E-1,-2.8709677E-1,-2.6642049E-2,-1.4971745E-1,2.3321746E-1,-1.0371871E-1,7.273515E-2,1.6382158E-1,-1.9907229E-1,-7.716414E-2,-3.7598005E-1,-1.9343479E-1,3.8732145E-2,3.175091E-1,7.490563E-2,-8.3447555E-3,2.7896664E-1,1.8382311E-1,3.068894E-1],"categories":[],"categories_nodes":[],"categories_segments":[],"categories_sizes":[],"default_left":[0,0,0,0,0,0,0,0,0,0,0,0,0,0,0,0,0,0,0,0,0,0,0,0,0,0,0,0,0,0,0,0,0,0,0,0,0,0,0,0,0,0,0,0,0],"id":7,"left_children":[1,3,5,7,-1,9,-1,-1,11,13,15,-1,17,19,21,23,25,-1,27,29,31,33,35,37,39,41,43,-1,-1,-1,-1,-1,-1,-1,-1,-1,-1,-1,-1,-1,-1,-1,-1,-1,-1],"loss_changes":[1.7966219E2,5.2248535E0,4.958523E1,1.7172546E0,0E0,3.4166023E1,0E0,0E0,1.78683E0,1.09528675E1,2.0303951E1,0E0,2.3011892E0,6.722518E0,7.5488224E0,1.5475044E1,9.608131E0,0E0,1.481493E0,1.0012489E1,9.403319E0,2.1962316E0,6.3578606E-1,1.37415495E1,8.514149E0,5.723804E0,3.4859085E0,0E0,0E0,0E0,0E0,0E0,0E0,0E0,0E0,0E0,0E0,0E0,0E0,0E0,0E0,0E0,0E0,0E0,0E0],"parents":[2147483647,0,0,1,1,2,2,3,3,5,5,8,8,9,9,10,10,12,12,13,13,14,14,15,15,16,16,18,18,19,19,20,20,21,21,22,22,23,23,24,24,25,25,26,26],"right_children":[2,4,6,8,-1,10,-1,-1,12,14,16,-1,18,20,22,24,26,-1,28,30,32,34,36,38,40,42,44,-1,-1,-1,-1,-1,-1,-1,-1,-1,-1,-1,-1,-1,-1,-1,-1,-1,-1],"split_conditions":[0E0,1E0,1E0,1E0,1.8914852E-1,1E0,3.179354E-1,-3.1688458E-1,1E0,1E0,1E0,-2.906666E-1,1E0,0E0,1E0,0E0,1E0,1.4236663E-1,1E0,1E0,1E0,0E0,1E0,1E0,1E0,1E0,0E0,-2.8709677E-1,-2.6642049E-2,-1.4971745E-1,2.3321746E-1,-1.0371871E-1,7.273515E-2,1.6382158E-1,-1.9907229E-1,-7.716414E-2,-3.7598005E-1,-1.9343479E-1,3.8732145E-2,3.175091E-1,7.490563E-2,-8.3447555E-3,2.7896664E-1,1.8382311E-1,3.068894E-1],"split_indices":[13,5,5,7,0,7,0,0,12,18,6,0,19,6,11,14,24,0,0,14,0,1,21,12,11,13,15,0,0,0,0,0,0,0,0,0,0,0,0,0,0,0,0,0,0],"split_type":[0,0,0,0,0,0,0,0,0,0,0,0,0,0,0,0,0,0,0,0,0,0,0,0,0,0,0,0,0,0,0,0,0,0,0,0,0,0,0,0,0,0,0,0,0],"sum_hessian":[7.8641425E2,1.4582826E2,6.40586E2,1.4448967E2,1.3385912E0,5.761827E2,6.4403366E1,1.2683754E2,1.7652124E1,2.0058617E2,3.755965E2,8.2019825E0,9.450143E0,1.8005966E2,2.05265E1,2.1654611E2,1.5905037E2,2.0982194E0,7.3519235E0,6.367727E1,1.1638239E2,4.9579387E0,1.55685625E1,9.3273674E1,1.23272446E2,3.9307777E1,1.197426E2,3.3583887E0,3.9935348E0,5.77107E1,5.9665675E0,4.1294003E1,7.508839E1,3.7138011E0,1.2441374E0,1.2879848E0,1.4280578E1,3.78226E1,5.5451077E1,1.4000712E1,1.0927173E2,3.2605785E1,6.7019897E0,8.8205025E1,3.153757E1],"tree_param":{"num_deleted":"0","num_feature":"25","num_nodes":"45","size_leaf_vector":"1"}},{"base_weights":[4.4276635E-3,-9.57986E-1,1.879046E-1,-9.789137E-1,1.7351985E-1,1.1000794E-1,3.1040058E-1,-3.1086418E-1,-5.747936E-1,1.925792E-2,5.619812E-1,-2.7789858E-1,-2.206183E-1,-1.7563921E-1,1.980184E-1,1.6745612E-1,7.513278E-1,-2.3366849E-1,1.1362103E-1,-6.2580866E-1,6.886141E-2,-1.626143E-1,3.157237E-1,3.4629682E-1,-2.89037E-1,2.7912283E-1,2.9841316E-1,-8.7375194E-2,2.1741854E-1,-3.8034418E-1,-7.667523E-2,-1.1430118E-1,8.7631926E-2,2.2798201E-1,-1.8720995E-1,-2.2707386E-3,1.397319E-1,2.5279235E-2,3.1907037E-1,2.6677635E-1,1.5788814E-2],"categories":[],"categories_nodes":[],"categories_segments":[],"categories_sizes":[],"default_left":[0,0,0,0,0,0,0,0,0,0,0,0,0,0,0,0,0,0,0,0,0,0,0,0,0,0,0,0,0,0,0,0,0,0,0,0,0,0,0,0,0],"id":8,"left_children":[1,3,5,7,-1,9,-1,-1,11,13,15,-1,17,19,21,23,25,-1,27,29,31,33,35,37,-1,39,-1,-1,-1,-1,-1,-1,-1,-1,-1,-1,-1,-1,-1,-1,-1],"loss_changes":[1.24357376E2,4.1918945E0,3.889953E1,1.9890823E0,0E0,2.2251366E1,0E0,0E0,1.8010244E0,1.5818648E1,6.651205E0,0E0,1.8305657E0,2.395701E1,1.0101945E1,6.5442486E0,6.7344475E0,0E0,1.8718616E0,1.7875597E1,1.4341996E1,2.5556782E1,8.679487E0,5.031933E0,0E0,3.0129914E0,0E0,0E0,0E0,0E0,0E0,0E0,0E0,0E0,0E0,0E0,0E0,0E0,0E0,0E0,0E0],"parents":[2147483647,0,0,1,1,2,2,3,3,5,5,8,8,9,9,10,10,12,12,13,13,14,14,15,15,16,16,18,18,19,19,20,20,21,21,22,22,23,23,25,25],"right_children":[2,4,6,8,-1,10,-1,-1,12,14,16,-1,18,20,22,24,26,-1,28,30,32,34,36,38,-1,40,-1,-1,-1,-1,-1,-1,-1,-1,-1,-1,-1,-1,-1,-1,-1],"split_conditions":[0E0,1E0,1E0,1E0,1.7351985E-1,0E0,3.1040058E-1,-3.1086418E-1,0E0,1E0,1E0,-2.7789858E-1,1E0,0E0,1E0,0E0,1E0,-2.3366849E-1,1E0,1E0,1E0,1E0,1E0,1E0,-2.89037E-1,1E0,2.9841316E-1,-8.7375194E-2,2.1741854E-1,-3.8034418E-1,-7.667523E-2,-1.1430118E-1,8.7631926E-2,2.2798201E-1,-1.8720995E-1,-2.2707386E-3,1.397319E-1,2.5279235E-2,3.1907037E-1,2.6677635E-1,1.5788814E-2],"split_indices":[13,5,5,7,0,15,0,0,14,23,7,0,12,6,0,7,24,0,9,24,0,2,7,6,0,1,0,0,0,0,0,0,0,0,0,0,0,0,0,0,0],"split_type":[0,0,0,0,0,0,0,0,0,0,0,0,0,0,0,0,0,0,0,0,0,0,0,0,0,0,0,0,0,0,0,0,0,0,0,0,0,0,0,0,0],"sum_hessian":[7.022329E2,1.11763756E2,5.904691E2,1.10619804E2,1.1439506E0,5.417607E2,4.870847E1,9.551291E1,1.51068945E1,4.520399E2,8.972079E1,6.7709594E0,8.335936E0,2.1626749E2,2.357724E2,2.9707085E1,6.0013702E1,2.623529E0,5.712406E0,7.5570015E1,1.4069746E2,5.792295E1,1.7784946E2,2.6249777E1,3.4573069E0,2.114179E1,3.8871914E1,3.7508159E0,1.9615903E0,2.6753098E1,4.8816917E1,4.6429607E1,9.426786E1,1.9095905E1,3.8827045E1,5.667923E1,1.2117023E2,2.004459E1,6.2051888E0,4.931379E0,1.6210411E1],"tree_param":{"num_deleted":"0","num_feature":"25","num_nodes":"41","size_leaf_vector":"1"}},{"base_weights":[4.223248E-3,-9.243104E-1,1.500293E-1,-3.060779E-1,-4.0208533E-1,8.660979E-2,3.040926E-1,-8.145947E-2,-2.7307668E-1,-1.1621305E-1,2.3244096E-1,-2.1051537E-1,1.14126995E-1,5.43942E-1,-2.1110152E-1,1.4311522E-1,6.7247444E-1,2.5582838E-1,-1.6913302E-1,-9.4288975E-1,9.3999916E-1,4.3020043E-1,-2.8904274E-1,-1.4965312E-1,2.655222E-1,2.6353297E-1,8.9133286E-1,-2.773681E-1,5.7233997E-2,-3.6313903E-1,1.4356488E-2,3.197409E-1,6.174988E-2,2.4030933E-1,-9.371298E-2,-6.5974206E-2,-3.1486338E-1,1.8456377E-1,-1.1548073E-1,-5.513423E-2,1.3291028E-1,-2.7787006E-1,1.2511624E-1,1.2818725E-1,2.8190768E-1],"categories":[],"categories_nodes":[],"categories_segments":[],"categories_sizes":[],"default_left":[0,0,0,0,0,0,0,0,0,0,0,0,0,0,0,0,0,0,0,0,0,0,0,0,0,0,0,0,0,0,0,0,0,0,0,0,0,0,0,0,0,0,0,0,0],"id":9,"left_children":[1,3,5,-1,7,9,-1,11,-1,13,15,-1,17,19,21,23,25,-1,27,29,31,33,35,37,39,41,43,-1,-1,-1,-1,-1,-1,-1,-1,-1,-1,-1,-1,-1,-1,-1,-1,-1,-1],"loss_changes":[8.662077E1,3.9407272E0,3.0197178E1,0E0,2.3907216E0,1.5295557E1,0E0,1.3385994E0,0E0,1.3681841E1,1.17204685E1,0E0,1.9743491E0,1.7079208E1,9.625532E0,9.04097E0,4.2812138E0,0E0,2.1222854E0,1.723628E0,1.8324089E0,6.0331516E0,8.710959E0,1.367857E1,1.4236565E1,3.8586245E0,3.2665062E-1,0E0,0E0,0E0,0E0,0E0,0E0,0E0,0E0,0E0,0E0,0E0,0E0,0E0,0E0,0E0,0E0,0E0,0E0],"parents":[2147483647,0,0,1,1,2,2,4,4,5,5,7,7,9,9,10,10,12,12,13,13,14,14,15,15,16,16,18,18,19,19,20,20,21,21,22,22,23,23,24,24,25,25,26,26],"right_children":[2,4,6,-1,8,10,-1,12,-1,14,16,-1,18,20,22,24,26,-1,28,30,32,34,36,38,40,42,44,-1,-1,-1,-1,-1,-1,-1,-1,-1,-1,-1,-1,-1,-1,-1,-1,-1,-1],"split_conditions":[0E0,1E0,1E0,-3.060779E-1,1E0,0E0,3.040926E-1,1E0,-2.7307668E-1,1E0,1E0,-2.1051537E-1,1E0,1E0,1E0,1E0,1E0,2.5582838E-1,1E0,1E0,1E0,0E0,1E0,1E0,1E0,1E0,1E0,-2.773681E-1,5.7233997E-2,-3.6313903E-1,1.4356488E-2,3.197409E-1,6.174988E-2,2.4030933E-1,-9.371298E-2,-6.5974206E-2,-3.1486338E-1,1.8456377E-1,-1.1548073E-1,-5.513423E-2,1.3291028E-1,-2.7787006E-1,1.2511624E-1,1.2818725E-1,2.8190768E-1],"split_indices":[13,7,5,0,8,14,0,11,0,21,13,0,19,12,2,24,7,0,16,22,13,1,18,11,0,19,4,0,0,0,0,0,0,0,0,0,0,0,0,0,0,0,0,0,0],"split_type":[0,0,0,0,0,0,0,0,0,0,0,0,0,0,0,0,0,0,0,0,0,0,0,0,0,0,0,0,0,0,0,0,0,0,0,0,0,0,0,0,0,0,0,0,0],"sum_hessian":[6.3778253E2,8.583323E1,5.519493E2,7.170506E1,1.412817E1,5.152147E2,3.6734573E1,9.374013E0,4.754157E0,2.155833E2,2.996314E2,1.6269007E0,7.747112E0,2.6498226E1,1.8908507E2,2.5017229E2,4.9459133E1,1.5901312E0,6.1569805E0,5.2833605E0,2.1214867E1,2.0000553E1,1.6908452E2,7.369317E1,1.7647911E2,1.801042E1,3.1448713E1,1.4805619E0,4.676419E0,3.9852736E0,1.298087E0,1.7725735E1,3.489131E0,1.3286686E1,6.7138677E0,1.5617735E2,1.29071665E1,1.6956278E1,5.6736897E1,4.9968327E1,1.2651079E2,1.4831287E0,1.6527292E1,3.8963363E0,2.7552376E1],"tree_param":{"num_deleted":"0","num_feature":"25","num_nodes":"45","size_leaf_vector":"1"}},{"base_weights":[3.4503804E-3,-8.908231E-1,1.1806266E-1,-3.0199867E-1,-3.585952E-1,6.7321666E-2,2.9838493E-1,-2.5223E-1,-5.5920936E-2,-2.6118357E-4,4.4682682E-1,-1.5450168E-1,1.9318376E-1,-1.0860911E-1,2.1061249E-1,8.826456E-2,6.572362E-1,-1.7526191E-1,4.2685735E-1,3.72329E-1,-1.6501218E-1,-1.15329534E-1,3.4627157E-1,2.2633749E-1,-2.6501057E-1,2.089325E-1,2.8782952E-1,-3.1994343E-2,2.9469293E-1,-2.0088257E-1,1.8322147E-1,-1.7950474E-1,-1.5568912E-2,-2.5505522E-1,4.3279314E-3,6.569372E-3,1.3574006E-1,1.9175498E-1,-2.87827E-2,1.4298472E-1,-8.112608E-2],"categories":[],"categories_nodes":[],"categories_segments":[],"categories_sizes":[],"default_left":[0,0,0,0,0,0,0,0,0,0,0,0,0,0,0,0,0,0,0,0,0,0,0,0,0,0,0,0,0,0,0,0,0,0,0,0,0,0,0,0,0],"id":10,"left_children":[1,3,5,-1,7,9,-1,-1,11,13,15,-1,17,19,21,23,25,-1,27,29,31,33,35,37,-1,39,-1,-1,-1,-1,-1,-1,-1,-1,-1,-1,-1,-1,-1,-1,-1],"loss_changes":[6.0743225E1,3.7899094E0,2.3296669E1,0E0,1.9359859E0,1.2763175E1,0E0,0E0,1.176636E0,9.696617E0,5.617135E0,0E0,1.4906286E0,7.666398E0,6.4093013E0,4.0868306E0,6.200693E0,0E0,1.8328811E0,7.795321E0,1.2302568E1,4.120412E0,3.5024319E0,3.5424962E0,0E0,2.7341704E0,0E0,0E0,0E0,0E0,0E0,0E0,0E0,0E0,0E0,0E0,0E0,0E0,0E0,0E0,0E0],"parents":[2147483647,0,0,1,1,2,2,4,4,5,5,8,8,9,9,10,10,12,12,13,13,14,14,15,15,16,16,18,18,19,19,20,20,21,21,22,22,23,23,25,25],"right_children":[2,4,6,-1,8,10,-1,-1,12,14,16,-1,18,20,22,24,26,-1,28,30,32,34,36,38,-1,40,-1,-1,-1,-1,-1,-1,-1,-1,-1,-1,-1,-1,-1,-1,-1],"split_conditions":[0E0,1E0,1E0,-3.0199867E-1,1E0,0E0,2.9838493E-1,-2.5223E-1,0E0,1E0,1E0,-1.5450168E-1,1E0,1E0,0E0,0E0,1E0,-1.7526191E-1,1E0,1E0,1E0,1E0,1E0,1E0,-2.6501057E-1,1E0,2.8782952E-1,-3.1994343E-2,2.9469293E-1,-2.0088257E-1,1.8322147E-1,-1.7950474E-1,-1.5568912E-2,-2.5505522E-1,4.3279314E-3,6.569372E-3,1.3574006E-1,1.9175498E-1,-2.87827E-2,1.4298472E-1,-8.112608E-2],"split_indices":[13,7,5,0,12,15,0,0,14,6,7,0,2,11,7,7,24,0,16,3,0,11,24,15,0,18,0,0,0,0,0,0,0,0,0,0,0,0,0,0,0],"split_type":[0,0,0,0,0,0,0,0,0,0,0,0,0,0,0,0,0,0,0,0,0,0,0,0,0,0,0,0,0,0,0,0,0,0,0,0,0,0,0,0,0],"sum_hessian":[5.906212E2,6.6326866E1,5.242943E2,5.373915E1,1.2587711E1,4.9662314E2,2.7671183E1,4.168825E0,8.418886E0,4.224007E2,7.4222435E1,2.585867E0,5.8330197E0,2.793528E2,1.430479E2,2.7972874E1,4.6249565E1,1.0014106E0,4.831609E0,2.8734875E1,2.5061795E2,4.208412E1,1.0096377E2,2.516402E1,2.808853E0,1.9303865E1,2.6945698E1,2.876635E0,1.9549739E0,5.0138445E0,2.372103E1,5.0989994E1,1.9962794E2,5.482513E0,3.660161E1,2.519914E1,7.576463E1,1.0600845E1,1.4563175E1,1.2390433E1,6.9134336E0],"tree_param":{"num_deleted":"0","num_feature":"25","num_nodes":"41","size_leaf_vector":"1"}},{"base_weights":[2.5516402E-3,-8.559958E-1,9.180241E-2,-2.9822323E-1,-3.1620118E-1,5.1622353E-2,2.9278296E-1,-5.5529233E-2,-2.4640273E-1,3.793822E-4,3.67097E-1,1.348357E-1,-2.5291732E-1,3.1451732E-1,-5.1243663E-2,5.685254E-2,5.7875097E-1,8.578152E-2,-2.5273487E-1,-3.9481503E-1,5.0476193E-1,5.262019E-1,-1.03626594E-1,1.6457191E-1,-2.4258742E-1,1.6106786E-1,2.7903068E-1,-1.225105E-1,1.6400468E-1,-3.6191502E-1,1.982719E-1,3.0045927E-1,3.6922153E-2,-7.175509E-2,2.325403E-1,-1.5016869E-2,-2.8582296E-1,-7.782794E-3,2.308584E-1,1.1523638E-1,-1.2782247E-1],"categories":[],"categories_nodes":[],"categories_segments":[],"categories_sizes":[],"default_left":[0,0,0,0,0,0,0,0,0,0,0,0,0,0,0,0,0,0,0,0,0,0,0,0,0,0,0,0,0,0,0,0,0,0,0,0,0,0,0,0,0],"id":11,"left_children":[1,3,5,-1,7,9,-1,11,-1,13,15,-1,17,19,21,23,25,27,-1,29,31,33,35,37,-1,39,-1,-1,-1,-1,-1,-1,-1,-1,-1,-1,-1,-1,-1,-1,-1],"loss_changes":[4.2628613E1,3.5903702E0,1.7850857E1,0E0,1.5526175E0,7.808923E0,0E0,1.0186062E0,0E0,6.7713704E0,4.3993673E0,0E0,1.5033581E0,8.152082E0,1.0902389E1,2.7884915E0,5.7226744E0,1.4666792E0,0E0,1.1956457E1,8.771095E0,5.899679E0,1.4946603E1,3.0351026E0,0E0,2.7163744E0,0E0,0E0,0E0,0E0,0E0,0E0,0E0,0E0,0E0,0E0,0E0,0E0,0E0,0E0,0E0],"parents":[2147483647,0,0,1,1,2,2,4,4,5,5,7,7,9,9,10,10,12,12,13,13,14,14,15,15,16,16,17,17,19,19,20,20,21,21,22,22,23,23,25,25],"right_children":[2,4,6,-1,8,10,-1,12,-1,14,16,-1,18,20,22,24,26,28,-1,30,32,34,36,38,-1,40,-1,-1,-1,-1,-1,-1,-1,-1,-1,-1,-1,-1,-1,-1,-1],"split_conditions":[0E0,1E0,1E0,-2.9822323E-1,1E0,0E0,2.9278296E-1,1E0,-2.4640273E-1,1E0,1E0,1.348357E-1,1E0,1E0,1E0,0E0,1E0,0E0,-2.5273487E-1,1E0,1E0,1E0,1E0,1E0,-2.4258742E-1,1E0,2.7903068E-1,-1.225105E-1,1.6400468E-1,-3.6191502E-1,1.982719E-1,3.0045927E-1,3.6922153E-2,-7.175509E-2,2.325403E-1,-1.5016869E-2,-2.8582296E-1,-7.782794E-3,2.308584E-1,1.1523638E-1,-1.2782247E-1],"split_indices":[13,7,5,0,8,15,0,19,0,21,7,0,14,12,17,7,24,14,0,22,22,16,18,6,0,14,0,0,0,0,0,0,0,0,0,0,0,0,0,0,0],"split_type":[0,0,0,0,0,0,0,0,0,0,0,0,0,0,0,0,0,0,0,0,0,0,0,0,0,0,0,0,0,0,0,0,0,0,0,0,0,0,0,0,0],"sum_hessian":[5.542948E2,5.1386986E1,5.029078E2,4.0249435E1,1.1137553E1,4.8205887E2,2.0848932E1,8.078612E0,3.0589411E0,4.155601E2,6.649878E1,1.9114687E0,6.1671433E0,5.7932873E1,3.5762723E2,2.7482815E1,3.901597E1,4.4595366E0,1.7076067E0,1.2024371E1,4.59085E1,2.8991611E1,3.2863562E2,2.5161058E1,2.321757E0,1.8491667E1,2.05243E1,2.207146E0,2.2523904E0,6.7176094E0,5.3067617E0,1.9241562E1,2.6666939E1,7.1246896E0,2.1866922E1,3.101287E2,1.8506926E1,1.9862894E1,5.2981644E0,1.3651349E1,4.840318E0],"tree_param":{"num_deleted":"0","num_feature":"25","num_nodes":"41","size_leaf_vector":"1"}},{"base_weights":[2.9666605E-3,-8.1729794E-1,7.255107E-2,-2.9441717E-1,-2.814468E-1,4.094452E-2,2.868735E-1,-2.2874019E-1,-2.2698637E-2,-9.620578E-2,1.4220048E-1,-2.5163254E-1,3.4148395E-1,-2.666186E-1,8.022606E-2,7.080019E-2,5.6167525E-1,2.050807E-1,-2.2520795E-1,1.3857026E-2,1.4768636E-1,-6.9848335E-1,-3.0933445E-2,4.401129E-1,-9.255189E-2,-1.510144E-1,1.6948089E-1,2.1303514E-1,8.115463E-1,8.819282E-2,1.7784658E-3,-3.1247744E-1,-7.831916E-2,9.324971E-2,-3.7736256E-2,1.7764789E-1,-1.1000892E-1,-1.3601182E-1,4.8647903E-2,1.4542063E-1,-8.099734E-2,-3.928143E-2,8.935657E-2,1.08304344E-1,-2.3822892E-1,7.904338E-2,2.6383662E-1],"categories":[],"categories_nodes":[],"categories_segments":[],"categories_sizes":[],"default_left":[0,0,0,0,0,0,0,0,0,0,0,0,0,0,0,0,0,0,0,0,0,0,0,0,0,0,0,0,0,0,0,0,0,0,0,0,0,0,0,0,0,0,0,0,0,0,0],"id":12,"left_children":[1,3,5,-1,7,9,-1,-1,11,13,15,17,19,21,23,25,27,29,-1,-1,-1,31,33,35,37,39,41,43,45,-1,-1,-1,-1,-1,-1,-1,-1,-1,-1,-1,-1,-1,-1,-1,-1,-1,-1],"loss_changes":[3.0088717E1,3.3484669E0,1.353208E1,0E0,1.3600299E0,6.542911E0,0E0,0E0,7.7178437E-1,6.0431323E0,8.073151E0,1.4364575E0,1.3755107E-1,1.0371604E1,6.2073054E0,5.117378E0,3.246913E0,6.417686E-2,0E0,0E0,0E0,5.1317463E0,2.2145197E0,4.1845913E0,6.3074856E0,5.588467E0,6.2661734E0,2.9312847E0,6.061249E-1,0E0,0E0,0E0,0E0,0E0,0E0,0E0,0E0,0E0,0E0,0E0,0E0,0E0,0E0,0E0,0E0,0E0,0E0],"parents":[2147483647,0,0,1,1,2,2,4,4,5,5,8,8,9,9,10,10,11,11,12,12,13,13,14,14,15,15,16,16,17,17,21,21,22,22,23,23,24,24,25,25,26,26,27,27,28,28],"right_children":[2,4,6,-1,8,10,-1,-1,12,14,16,18,20,22,24,26,28,30,-1,-1,-1,32,34,36,38,40,42,44,46,-1,-1,-1,-1,-1,-1,-1,-1,-1,-1,-1,-1,-1,-1,-1,-1,-1,-1],"split_conditions":[0E0,1E0,1E0,-2.9441717E-1,1E0,0E0,2.868735E-1,-2.2874019E-1,1E0,1E0,1E0,0E0,1E0,0E0,0E0,1E0,1E0,1E0,-2.2520795E-1,1.3857026E-2,1.4768636E-1,1E0,1E0,1E0,1E0,1E0,1E0,0E0,1E0,8.819282E-2,1.7784658E-3,-3.1247744E-1,-7.831916E-2,9.324971E-2,-3.7736256E-2,1.7764789E-1,-1.1000892E-1,-1.3601182E-1,4.8647903E-2,1.4542063E-1,-8.099734E-2,-3.928143E-2,8.935657E-2,1.08304344E-1,-2.3822892E-1,7.904338E-2,2.6383662E-1],"split_indices":[13,7,5,0,12,14,0,0,6,23,13,6,9,6,6,24,7,14,0,0,0,12,24,13,6,0,0,7,4,0,0,0,0,0,0,0,0,0,0,0,0,0,0,0,0,0,0],"split_type":[0,0,0,0,0,0,0,0,0,0,0,0,0,0,0,0,0,0,0,0,0,0,0,0,0,0,0,0,0,0,0,0,0,0,0,0,0,0,0,0,0,0,0,0,0,0,0],"sum_hessian":[5.2511536E2,4.0222702E1,4.8489267E2,3.0156483E1,1.0066221E1,4.6915887E2,1.5733793E1,2.8399386E0,7.2262826E0,1.9928246E2,2.6987643E2,4.626808E0,2.5994742E0,1.0111034E2,9.817211E1,2.316203E2,3.8256134E1,2.723487E0,1.9033213E0,1.3203492E0,1.279125E0,3.5004738E1,6.61056E1,3.1341738E1,6.6830376E1,7.115275E1,1.6046756E2,1.6744896E1,2.1511238E1,1.5537893E0,1.1696978E0,1.884313E1,1.616161E1,1.3866539E1,5.223906E1,2.6595709E1,4.746029E0,2.7332123E1,3.9498253E1,1.0732049E1,6.0420696E1,4.803562E1,1.1243194E2,1.5159091E1,1.5858057E0,2.9095132E0,1.8601725E1],"tree_param":{"num_deleted":"0","num_feature":"25","num_nodes":"47","size_leaf_vector":"1"}},{"base_weights":[1.4718629E-3,-7.738327E-1,5.548719E-2,-2.902832E-1,-2.4493687E-1,3.0596744E-2,2.803029E-1,-2.1388958E-1,-1.7211435E-2,-1.0961195E-1,1.1493382E-1,1.16134994E-1,-1.9649917E-1,-5.212908E-2,-7.158055E-1,5.2046116E-2,6.313784E-1,1.10477984E-1,-2.2029123E-1,-6.9855493E-1,-1.5418861E-2,8.145031E-2,-9.7955996E-1,3.2049382E-1,1.441087E-2,-2.5018755E-1,7.8625524E-1,-1.0345689E-1,1.65157E-1,-3.2406893E-1,-3.3393146E-3,-2.8954282E-1,2.5375735E-3,1.3350113E-1,-1.7800343E-1,-1.2361002E-1,-3.414927E-1,1.1496561E-1,-1.2009262E-2,1.8278396E-1,-2.0195538E-1,2.7896842E-1,1.1861453E-1],"categories":[],"categories_nodes":[],"categories_segments":[],"categories_sizes":[],"default_left":[0,0,0,0,0,0,0,0,0,0,0,0,0,0,0,0,0,0,0,0,0,0,0,0,0,0,0,0,0,0,0,0,0,0,0,0,0,0,0,0,0,0,0],"id":13,"left_children":[1,3,5,-1,7,9,-1,-1,11,13,15,-1,17,19,21,23,25,27,-1,29,31,33,35,-1,37,39,41,-1,-1,-1,-1,-1,-1,-1,-1,-1,-1,-1,-1,-1,-1,-1,-1],"loss_changes":[2.1052418E1,3.118702E0,1.0251331E1,0E0,1.0661747E0,5.428683E0,0E0,0E0,6.4377123E-1,5.9750547E0,9.27162E0,0E0,1.086357E0,3.7546926E0,3.2057714E0,9.794184E0,4.4304647E0,1.1406982E0,0E0,2.219283E0,3.4362917E0,1.3971195E0,5.44281E-1,0E0,5.0014744E0,2.370534E0,1.1267147E0,0E0,0E0,0E0,0E0,0E0,0E0,0E0,0E0,0E0,0E0,0E0,0E0,0E0,0E0,0E0,0E0],"parents":[2147483647,0,0,1,1,2,2,4,4,5,5,8,8,9,9,10,10,12,12,13,13,14,14,15,15,16,16,17,17,19,19,20,20,21,21,22,22,24,24,25,25,26,26],"right_children":[2,4,6,-1,8,10,-1,-1,12,14,16,-1,18,20,22,24,26,28,-1,30,32,34,36,-1,38,40,42,-1,-1,-1,-1,-1,-1,-1,-1,-1,-1,-1,-1,-1,-1,-1,-1],"split_conditions":[0E0,1E0,1E0,-2.902832E-1,1E0,1E0,2.803029E-1,-2.1388958E-1,1E0,1E0,1E0,1.16134994E-1,1E0,1E0,1E0,1E0,1E0,0E0,-2.2029123E-1,1E0,1E0,0E0,1E0,3.2049382E-1,1E0,1E0,1E0,-1.0345689E-1,1.65157E-1,-3.2406893E-1,-3.3393146E-3,-2.8954282E-1,2.5375735E-3,1.3350113E-1,-1.7800343E-1,-1.2361002E-1,-3.414927E-1,1.1496561E-1,-1.2009262E-2,1.8278396E-1,-2.0195538E-1,2.7896842E-1,1.1861453E-1],"split_indices":[13,7,5,0,12,7,0,0,19,18,13,0,14,17,11,20,3,14,0,16,20,1,0,0,16,17,8,0,0,0,0,0,0,0,0,0,0,0,0,0,0,0,0],"split_type":[0,0,0,0,0,0,0,0,0,0,0,0,0,0,0,0,0,0,0,0,0,0,0,0,0,0,0,0,0,0,0,0,0,0,0,0,0,0,0,0,0,0,0],"sum_hessian":[5.0067908E2,3.1742308E1,4.6893677E2,2.2623844E1,9.118464E0,4.570279E2,1.1908867E1,2.2871115E0,6.831353E0,1.715424E2,2.854855E2,1.7424972E0,5.0888557E0,1.5767656E2,1.3865836E1,2.5547675E2,3.0008747E1,3.745509E0,1.3433471E0,7.5043554E0,1.5017221E2,3.6187031E0,1.0247133E1,8.145212E0,2.4733154E2,4.3922825E0,2.5616465E1,1.9470879E0,1.7984209E0,4.4578366E0,3.0465193E0,2.716166E0,1.4745604E2,2.5730035E0,1.0456996E0,3.0257173E0,7.221416E0,3.1036968E1,2.1629457E2,1.3034588E0,3.0888238E0,1.7724129E1,7.8923354E0],"tree_param":{"num_deleted":"0","num_feature":"25","num_nodes":"43","size_leaf_vector":"1"}},{"base_weights":[2.8003808E-4,-7.3042196E-1,4.221859E-2,-2.8554437E-1,-2.212244E-1,2.2701075E-2,2.727764E-1,-2.3224551E-2,-2.0628215E-1,-1.3732364E-2,2.702448E-1,1.116346E-1,-1.985148E-1,-7.7178985E-2,1.1512143E-1,3.8755363E-1,-2.5741318E-1,6.997079E-2,-2.016856E-1,-4.7238824E-1,-3.9993517E-2,-1.6293085E-1,2.1848273E-1,9.360879E-2,6.6289794E-1,2.9807147E-1,-6.914841E-1,-7.828711E-2,1.0807127E-1,-5.6122813E-2,-3.536118E-1,1.3620244E-1,-2.9597096E-2,2.15325E-1,-1.01931036E-1,2.0572586E-1,4.2919535E-2,1.18933596E-1,-8.337753E-2,2.8098202E-1,2.964295E-2,2.1507426E-1,-8.408585E-2,5.128718E-2,-4.6592396E-1],"categories":[],"categories_nodes":[],"categories_segments":[],"categories_sizes":[],"default_left":[0,0,0,0,0,0,0,0,0,0,0,0,0,0,0,0,0,0,0,0,0,0,0,0,0,0,0,0,0,0,0,0,0,0,0,0,0,0,0,0,0,0,0,0,0],"id":14,"left_children":[1,3,5,-1,7,9,-1,11,-1,13,15,-1,17,19,21,23,25,27,-1,29,31,33,35,37,39,41,43,-1,-1,-1,-1,-1,-1,-1,-1,-1,-1,-1,-1,-1,-1,-1,-1,-1,-1],"loss_changes":[1.4835474E1,2.7517633E0,7.72694E0,0E0,8.3966315E-1,4.05117E0,0E0,5.9633887E-1,0E0,3.2148573E0,3.6666942E0,0E0,7.9440016E-1,3.8515422E0,3.7656229E0,3.7859015E0,2.8781872E0,5.412434E-1,0E0,4.3251376E0,7.0523825E0,5.810632E0,3.2512002E0,2.828444E0,3.6722183E0,1.5477772E0,5.1118803E0,0E0,0E0,0E0,0E0,0E0,0E0,0E0,0E0,0E0,0E0,0E0,0E0,0E0,0E0,0E0,0E0,0E0,0E0],"parents":[2147483647,0,0,1,1,2,2,4,4,5,5,7,7,9,9,10,10,12,12,13,13,14,14,15,15,16,16,17,17,19,19,20,20,21,21,22,22,23,23,24,24,25,25,26,26],"right_children":[2,4,6,-1,8,10,-1,12,-1,14,16,-1,18,20,22,24,26,28,-1,30,32,34,36,38,40,42,44,-1,-1,-1,-1,-1,-1,-1,-1,-1,-1,-1,-1,-1,-1,-1,-1,-1,-1],"split_conditions":[0E0,1E0,1E0,-2.8554437E-1,1E0,0E0,2.727764E-1,1E0,-2.0628215E-1,1E0,1E0,1.116346E-1,1E0,1E0,1E0,1E0,1E0,0E0,-2.016856E-1,1E0,1E0,1E0,1E0,1E0,1E0,1E0,1E0,-7.828711E-2,1.0807127E-1,-5.6122813E-2,-3.536118E-1,1.3620244E-1,-2.9597096E-2,2.15325E-1,-1.01931036E-1,2.0572586E-1,4.2919535E-2,1.18933596E-1,-8.337753E-2,2.8098202E-1,2.964295E-2,2.1507426E-1,-8.408585E-2,5.128718E-2,-4.6592396E-1],"split_indices":[13,7,5,0,8,15,0,19,0,6,18,0,14,3,24,7,1,14,0,14,16,0,21,23,14,8,6,0,0,0,0,0,0,0,0,0,0,0,0,0,0,0,0,0,0],"split_type":[0,0,0,0,0,0,0,0,0,0,0,0,0,0,0,0,0,0,0,0,0,0,0,0,0,0,0,0,0,0,0,0,0,0,0,0,0,0,0,0,0,0,0,0,0],"sum_hessian":[4.821078E2,2.5277494E1,4.568303E2,1.7011757E1,8.265737E0,4.4777676E2,9.053546E0,6.539311E0,1.7264259E0,3.9115164E2,5.66251E1,1.6638666E0,4.8754444E0,2.6236578E2,1.2878586E2,4.6543156E1,1.0081943E1,3.6559367E0,1.2195076E0,2.1556675E1,2.4080911E2,3.4744186E1,9.404168E1,2.3159315E1,2.338384E1,4.559903E0,5.5220394E0,1.7554992E0,1.9004375E0,1.6255314E1,5.301361E0,2.4845703E1,2.1596341E2,5.298458E0,2.944573E1,1.1944371E1,8.2097305E1,1.2722324E1,1.0436991E1,1.52996855E1,8.084155E0,2.5057135E0,2.0541897E0,3.1602592E0,2.3617804E0],"tree_param":{"num_deleted":"0","num_feature":"25","num_nodes":"45","size_leaf_vector":"1"}},{"base_weights":[1.842138E-3,-6.8116665E-1,3.4450702E-2,-2.799405E-1,-2.010485E-1,1.9267155E-2,2.6407406E-1,-1.9142073E-1,-5.974937E-3,-8.5908465E-2,9.777513E-2,-2.037762E-1,2.8625306E-1,3.151064E-1,-1.3453706E-1,4.961497E-2,4.439175E-1,1.4778256E-1,-1.9080417E-1,2.3192866E-2,1.0798334E-1,-6.25741E-1,5.941927E-1,-2.6326817E-1,-3.2592253E-3,-1.1417662E-1,1.2419465E-1,1.8012282E-1,7.002632E-1,6.64079E-2,-4.6096453E-3,-2.268526E-1,-2.2063056E-2,2.1799919E-1,-9.767029E-3,-1.8288584E-1,-2.5352238E-2,-6.585093E-2,1.1103871E-1,-1.2296671E-1,2.147934E-2,-3.1535443E-2,6.790109E-2,-2.3351528E-1,9.284712E-2,1.6177421E-2,2.3909543E-1],"categories":[],"categories_nodes":[],"categories_segments":[],"categories_sizes":[],"default_left":[0,0,0,0,0,0,0,0,0,0,0,0,0,0,0,0,0,0,0,0,0,0,0,0,0,0,0,0,0,0,0,0,0,0,0,0,0,0,0,0,0,0,0,0,0,0,0],"id":15,"left_children":[1,3,5,-1,7,9,-1,-1,11,13,15,17,19,21,23,25,27,29,-1,-1,-1,31,33,35,37,39,41,43,45,-1,-1,-1,-1,-1,-1,-1,-1,-1,-1,-1,-1,-1,-1,-1,-1,-1,-1],"loss_changes":[1.0515757E1,2.4151306E0,5.7695284E0,0E0,7.361274E-1,3.671761E0,0E0,0E0,4.635513E-1,3.7505994E0,4.220624E0,8.1803083E-1,2.2146314E-2,5.8503647E0,2.877003E0,2.7571104E0,1.9674163E0,4.4683658E-2,0E0,0E0,0E0,3.2326245E-1,1.402246E0,5.2710786E0,6.9706054E0,3.9174125E0,3.6488948E0,2.2998261E0,9.169402E-1,0E0,0E0,0E0,0E0,0E0,0E0,0E0,0E0,0E0,0E0,0E0,0E0,0E0,0E0,0E0,0E0,0E0,0E0],"parents":[2147483647,0,0,1,1,2,2,4,4,5,5,8,8,9,9,10,10,11,11,12,12,13,13,14,14,15,15,16,16,17,17,21,21,22,22,23,23,24,24,25,25,26,26,27,27,28,28],"right_children":[2,4,6,-1,8,10,-1,-1,12,14,16,18,20,22,24,26,28,30,-1,-1,-1,32,34,36,38,40,42,44,46,-1,-1,-1,-1,-1,-1,-1,-1,-1,-1,-1,-1,-1,-1,-1,-1,-1,-1],"split_conditions":[0E0,1E0,1E0,-2.799405E-1,1E0,0E0,2.6407406E-1,-1.9142073E-1,1E0,1E0,1E0,0E0,1E0,1E0,1E0,1E0,1E0,1E0,-1.9080417E-1,2.3192866E-2,1.0798334E-1,1E0,1E0,0E0,1E0,0E0,1E0,1E0,1E0,6.64079E-2,-4.6096453E-3,-2.268526E-1,-2.2063056E-2,2.1799919E-1,-9.767029E-3,-1.8288584E-1,-2.5352238E-2,-6.585093E-2,1.1103871E-1,-1.2296671E-1,2.147934E-2,-3.1535443E-2,6.790109E-2,-2.3351528E-1,9.284712E-2,1.6177421E-2,2.3909543E-1],"split_indices":[13,7,5,0,12,14,0,0,6,21,13,6,9,12,23,24,7,14,0,0,0,10,13,6,8,6,0,19,10,0,0,0,0,0,0,0,0,0,0,0,0,0,0,0,0,0,0],"split_type":[0,0,0,0,0,0,0,0,0,0,0,0,0,0,0,0,0,0,0,0,0,0,0,0,0,0,0,0,0,0,0,0,0,0,0,0,0,0,0,0,0,0,0,0,0,0,0],"sum_hessian":[4.7009912E2,2.0514734E1,4.4958438E2,1.2835205E1,7.679529E0,4.426606E2,6.923767E0,1.6691777E0,6.0103517E0,1.8915672E2,2.5350389E2,3.7647645E0,2.245587E0,1.9864515E1,1.6929222E2,2.2354459E2,2.9959305E1,2.439062E0,1.3257025E0,1.1197536E0,1.1258335E0,4.2602797E0,1.5604235E1,8.496756E1,8.432465E1,6.977471E1,1.5376987E2,1.5604262E1,1.4355042E1,1.435068E0,1.0039942E0,3.1474333E0,1.1128465E0,1.2749956E1,2.8542793E0,2.8104485E1,5.6863075E1,5.3660107E1,3.0664549E1,2.6456057E1,4.3318657E1,4.7377254E1,1.0639262E2,1.2590319E0,1.4345231E1,2.071283E0,1.2283759E1],"tree_param":{"num_deleted":"0","num_feature":"25","num_nodes":"47","size_leaf_vector":"1"}},{"base_weights":[7.9315534E-4,-6.280822E-1,2.6230877E-2,-2.732378E-1,-1.7857406E-1,1.4260251E-2,2.54077E-1,-1.7730562E-1,-6.3868463E-3,-9.986919E-2,8.4384404E-2,9.1458E-2,-1.5830812E-1,-5.3230137E-2,-6.434864E-1,8.485445E-1,6.1927825E-2,-1.20499924E-1,7.8447185E-2,-2.2089586E-3,-5.144793E-1,4.9324315E-2,-8.758134E-1,2.826752E-1,1.0013865E-1,1.7423086E-2,5.2796894E-1,-8.3467886E-2,1.0137562E-1,-2.565085E-1,4.903309E-3,-3.32887E-1,1.6828577E-1,-9.302063E-2,1.4795363E-1,-1.02833934E-1,-3.10606E-1,-2.377285E-2,2.9168747E-2,3.6564317E-2,2.4200986E-1],"categories":[],"categories_nodes":[],"categories_segments":[],"categories_sizes":[],"default_left":[0,0,0,0,0,0,0,0,0,0,0,0,0,0,0,0,0,0,0,0,0,0,0,0,0,0,0,0,0,0,0,0,0,0,0,0,0,0,0,0,0],"id":16,"left_children":[1,3,5,-1,7,9,-1,-1,11,13,15,-1,17,19,21,23,25,-1,27,29,31,33,35,-1,-1,37,39,-1,-1,-1,-1,-1,-1,-1,-1,-1,-1,-1,-1,-1,-1],"loss_changes":[7.3546734E0,2.108757E0,4.328699E0,0E0,5.746598E-1,3.5019195E0,0E0,0E0,3.6776635E-1,4.1893654E0,4.5966053E0,0E0,3.3104986E-1,3.6351278E0,2.1473618E0,5.4752827E-2,5.4719806E0,0E0,4.1532063E-1,2.231192E0,1.0469444E1,8.2761586E-1,4.8216105E-1,0E0,0E0,1.8766649E0,2.5052876E0,0E0,0E0,0E0,0E0,0E0,0E0,0E0,0E0,0E0,0E0,0E0,0E0,0E0,0E0],"parents":[2147483647,0,0,1,1,2,2,4,4,5,5,8,8,9,9,10,10,12,12,13,13,14,14,15,15,16,16,18,18,19,19,20,20,21,21,22,22,25,25,26,26],"right_children":[2,4,6,-1,8,10,-1,-1,12,14,16,-1,18,20,22,24,26,-1,28,30,32,34,36,-1,-1,38,40,-1,-1,-1,-1,-1,-1,-1,-1,-1,-1,-1,-1,-1,-1],"split_conditions":[0E0,1E0,1E0,-2.732378E-1,1E0,1E0,2.54077E-1,-1.7730562E-1,1E0,1E0,1E0,9.1458E-2,1E0,0E0,1E0,1E0,1E0,-1.20499924E-1,0E0,1E0,1E0,1E0,1E0,2.826752E-1,1.0013865E-1,0E0,1E0,-8.3467886E-2,1.0137562E-1,-2.565085E-1,4.903309E-3,-3.32887E-1,1.6828577E-1,-9.302063E-2,1.4795363E-1,-1.02833934E-1,-3.10606E-1,-2.377285E-2,2.9168747E-2,3.6564317E-2,2.4200986E-1],"split_indices":[13,7,5,0,12,7,0,0,19,18,20,0,0,7,11,6,13,0,14,20,6,24,0,0,0,14,12,0,0,0,0,0,0,0,0,0,0,0,0,0,0],"split_type":[0,0,0,0,0,0,0,0,0,0,0,0,0,0,0,0,0,0,0,0,0,0,0,0,0,0,0,0,0,0,0,0,0,0,0,0,0,0,0,0,0],"sum_hessian":[4.577189E2,1.68737E1,4.408452E2,9.728763E0,7.144936E0,4.3551022E2,5.3349795E0,1.3879418E0,5.7569942E0,1.6558722E2,2.69923E2,1.5581193E0,4.198875E0,1.5351453E2,1.2072695E1,6.6556687E0,2.6326733E2,1.7270805E0,2.4717946E0,1.3912949E2,1.438505E1,3.22959E0,8.843104E0,4.9280496E0,1.7276195E0,2.4126505E2,2.2002293E1,1.0104854E0,1.4613092E0,2.0024025E0,1.3712708E2,9.239897E0,5.1451526E0,1.9511464E0,1.2784436E0,2.7623749E0,6.08073E0,1.0911068E2,1.3215436E2,9.540226E0,1.2462067E1],"tree_param":{"num_deleted":"0","num_feature":"25","num_nodes":"41","size_leaf_vector":"1"}},{"base_weights":[-6.2605005E-4,-5.737526E-1,1.9441785E-2,-2.652507E-1,-1.5964037E-1,9.884496E-3,2.4279426E-1,-8.323485E-3,-1.6902855E-1,2.659203E-1,-1.2314383E-2,-7.660662E-2,2.019393E-1,7.9039437E-1,-7.7316266E-1,-1.1321143E0,9.989887E-3,-6.0235087E-2,1.6113664E-1,-5.875403E-1,3.1712928E-1,-2.6098287E-1,-6.1750954E-1,-1.7453011E-2,-3.981397E-1,-2.4671681E-2,2.9181102E-1,2.5672233E-2,-2.625383E-1,1.2928472E-1,-2.3648362E-1,-2.1258034E-2,5.912544E-2,2.0623834E-1,-1.5228863E-1],"categories":[],"categories_nodes":[],"categories_segments":[],"categories_sizes":[],"default_left":[0,0,0,0,0,0,0,0,0,0,0,0,0,0,0,0,0,0,0,0,0,0,0,0,0,0,0,0,0,0,0,0,0,0,0],"id":17,"left_children":[1,3,5,-1,7,9,-1,11,-1,13,15,-1,17,19,21,23,25,-1,-1,27,-1,29,-1,-1,-1,31,33,-1,-1,-1,-1,-1,-1,-1,-1],"loss_changes":[5.138441E0,1.8017292E0,3.2507858E0,0E0,4.6552438E-1,2.4332519E0,0E0,3.9505604E-1,0E0,1.9224586E1,9.861442E0,0E0,6.654398E-1,9.144359E0,7.337053E0,1.5376806E0,3.7940834E0,0E0,0E0,9.273702E-1,0E0,3.8783255E0,0E0,0E0,0E0,3.5592558E0,1.38029995E1,0E0,0E0,0E0,0E0,0E0,0E0,0E0,0E0],"parents":[2147483647,0,0,1,1,2,2,4,4,5,5,7,7,9,9,10,10,12,12,13,13,14,14,15,15,16,16,19,19,21,21,25,25,26,26],"right_children":[2,4,6,-1,8,10,-1,12,-1,14,16,-1,18,20,22,24,26,-1,-1,28,-1,30,-1,-1,-1,32,34,-1,-1,-1,-1,-1,-1,-1,-1],"split_conditions":[0E0,1E0,1E0,-2.652507E-1,1E0,1E0,2.4279426E-1,1E0,-1.6902855E-1,1E0,1E0,-7.660662E-2,1E0,1E0,1E0,1E0,1E0,-6.0235087E-2,1.6113664E-1,1E0,3.1712928E-1,1E0,-6.1750954E-1,-1.7453011E-2,-3.981397E-1,1E0,1E0,2.5672233E-2,-2.625383E-1,1.2928472E-1,-2.3648362E-1,-2.1258034E-2,5.912544E-2,2.0623834E-1,-1.5228863E-1],"split_indices":[13,7,5,0,8,2,0,24,0,1,4,0,6,16,17,9,1,0,0,4,0,6,0,0,0,14,14,0,0,0,0,0,0,0,0],"split_type":[0,0,0,0,0,0,0,0,0,0,0,0,0,0,0,0,0,0,0,0,0,0,0,0,0,0,0,0,0,0,0,0,0,0,0],"sum_hessian":[4.4479636E2,1.4114118E1,4.3068225E2,7.4183016E0,6.695816E0,4.2653378E2,4.1484547E0,5.6129966E0,1.0828196E0,3.3154926E1,3.9337888E2,2.4822326E0,3.130764E0,2.2192608E1,1.0962318E1,6.710613E0,3.8666824E2,1.6042396E0,1.5265245E0,3.4037893E0,1.8788818E1,8.698752E0,2.2635663E0,1.2308427E0,5.4797697E0,3.4513242E2,4.153585E1,1.2292056E0,2.1745837E0,3.8410895E0,4.857663E0,2.862015E2,5.8930878E1,2.7878563E1,1.3657288E1],"tree_param":{"num_deleted":"0","num_feature":"25","num_nodes":"35","size_leaf_vector":"1"}},{"base_weights":[-6.7819154E-4,-5.1464325E-1,1.5140302E-2,-2.5587305E-1,-1.3714235E-1,7.49144E-3,2.303766E-1,-1.5478909E-1,6.504491E-3,-1.887746E-2,1.9633895E-1,7.808477E-2,-1.22453585E-1,-1.323057E-1,1.9125847E-2,1.119317E-1,2.1242462E-1,-1.0016783E-1,7.822481E-2,6.250375E-1,-2.541205E-1,4.4440467E-2,-7.193286E-1,4.9167717E-1,-6.6638395E-2,9.5634416E-2,-5.616526E-2,2.7120194E-1,-1.0200125E-1,1.1508149E-1,-1.1481193E-1,-3.0076295E-2,3.7039675E-2,6.547113E-2,-2.802649E-1,2.2440419E-1,-7.346997E-3,2.4251436E-1,-5.714892E-2],"categories":[],"categories_nodes":[],"categories_segments":[],"categories_sizes":[],"default_left":[0,0,0,0,0,0,0,0,0,0,0,0,0,0,0,0,0,0,0,0,0,0,0,0,0,0,0,0,0,0,0,0,0,0,0,0,0,0,0],"id":18,"left_children":[1,3,5,-1,7,9,-1,-1,11,13,15,-1,17,19,21,23,-1,-1,25,27,29,31,33,35,37,-1,-1,-1,-1,-1,-1,-1,-1,-1,-1,-1,-1,-1,-1],"loss_changes":[3.557404E0,1.551342E0,2.4386797E0,0E0,4.0418208E-1,2.101522E0,0E0,0E0,2.389762E-1,1.5999277E0,2.154057E0,0E0,2.3301779E-1,8.750111E0,5.2371407E0,3.1229548E0,0E0,0E0,2.71159E-1,3.8589435E0,6.78347E0,3.101509E0,2.0749602E0,1.9625864E0,3.608657E0,0E0,0E0,0E0,0E0,0E0,0E0,0E0,0E0,0E0,0E0,0E0,0E0,0E0,0E0],"parents":[2147483647,0,0,1,1,2,2,4,4,5,5,8,8,9,9,10,10,12,12,13,13,14,14,15,15,18,18,19,19,20,20,21,21,22,22,23,23,24,24],"right_children":[2,4,6,-1,8,10,-1,-1,12,14,16,-1,18,20,22,24,-1,-1,26,28,30,32,34,36,38,-1,-1,-1,-1,-1,-1,-1,-1,-1,-1,-1,-1,-1,-1],"split_conditions":[0E0,1E0,1E0,-2.5587305E-1,1E0,0E0,2.303766E-1,-1.5478909E-1,1E0,1E0,1E0,7.808477E-2,1E0,1E0,1E0,1E0,2.1242462E-1,-1.0016783E-1,0E0,1E0,0E0,1E0,1E0,1E0,1E0,9.5634416E-2,-5.616526E-2,2.7120194E-1,-1.0200125E-1,1.1508149E-1,-1.1481193E-1,-3.0076295E-2,3.7039675E-2,6.547113E-2,-2.802649E-1,2.2440419E-1,-7.346997E-3,2.4251436E-1,-5.714892E-2],"split_indices":[13,7,5,0,12,15,0,0,19,0,13,0,0,24,18,15,0,0,6,1,6,24,11,8,16,0,0,0,0,0,0,0,0,0,0,0,0,0,0],"split_type":[0,0,0,0,0,0,0,0,0,0,0,0,0,0,0,0,0,0,0,0,0,0,0,0,0,0,0,0,0,0,0,0,0,0,0,0,0,0,0],"sum_hessian":[4.3559845E2,1.2064712E1,4.2353372E2,5.6988187E0,6.365893E0,4.2027338E2,3.2603605E0,1.0376204E0,5.328273E0,3.695701E2,5.0703274E1,1.4521737E0,3.8760989E0,9.2124695E1,2.774454E2,4.457051E1,6.1327643E0,1.5642016E0,2.3118973E0,1.2192266E1,7.993243E1,2.6915833E2,8.287074E0,1.3694501E1,3.0876009E1,1.1073866E0,1.2045108E0,9.507218E0,2.685048E0,1.3079754E1,6.685267E1,9.498055E1,1.7417778E2,1.542311E0,6.7447634E0,8.850188E0,4.8443127E0,3.1432457E0,2.7732763E1],"tree_param":{"num_deleted":"0","num_feature":"25","num_nodes":"39","size_leaf_vector":"1"}},{"base_weights":[1.3361872E-3,-6.7359274E-3,2.3620589E-1,-5.717802E-1,7.819479E-3,-5.7901416E-2,-2.0736724E-1,-7.5668134E-2,5.896542E-2,-2.2619657E-2,-3.5220177E-3,-3.039786E-2,-5.219485E-1,7.774386E-1,4.055829E-2,-5.537935E-1,-1.1752443E-3,-3.1346935E-1,2.4281842E-1,2.6392275E-1,8.3623916E-2,9.673813E-3,4.187373E-1,-3.0258262E-1,2.1185179E-3,7.965532E-3,-1.4355053E-1,-2.0964605E-1,1.7770873E-1,-5.366224E-3,8.015575E-2,-9.918334E-2,1.7940882E-1],"categories":[],"categories_nodes":[],"categories_segments":[],"categories_sizes":[],"default_left":[0,0,0,0,0,0,0,0,0,0,0,0,0,0,0,0,0,0,0,0,0,0,0,0,0,0,0,0,0,0,0,0,0],"id":19,"left_children":[1,3,-1,5,7,9,-1,11,13,-1,-1,15,17,19,21,23,25,-1,27,-1,-1,29,31,-1,-1,-1,-1,-1,-1,-1,-1,-1,-1],"loss_changes":[2.7305079E0,3.5092542E0,0E0,6.176684E-1,1.7826262E0,1.6286224E-3,0E0,3.1890612E0,3.391006E0,0E0,0E0,2.218445E0,6.0719185E0,8.177853E-2,2.9554267E0,1.9636505E0,1.8446237E0,0E0,2.6256118E0,0E0,0E0,1.6746148E0,2.7647665E0,0E0,0E0,0E0,0E0,0E0,0E0,0E0,0E0,0E0,0E0],"parents":[2147483647,0,0,1,1,3,3,4,4,5,5,7,7,8,8,11,11,12,12,13,13,14,14,15,15,16,16,18,18,21,21,22,22],"right_children":[2,4,-1,6,8,10,-1,12,14,-1,-1,16,18,20,22,24,26,-1,28,-1,-1,30,32,-1,-1,-1,-1,-1,-1,-1,-1,-1,-1],"split_conditions":[1E0,0E0,2.3620589E-1,1E0,1E0,1E0,-2.0736724E-1,0E0,1E0,-2.2619657E-2,-3.5220177E-3,1E0,1E0,1E0,1E0,1E0,1E0,-3.1346935E-1,1E0,2.6392275E-1,8.3623916E-2,0E0,1E0,-3.0258262E-1,2.1185179E-3,7.965532E-3,-1.4355053E-1,-2.0964605E-1,1.7770873E-1,-5.366224E-3,8.015575E-2,-9.918334E-2,1.7940882E-1],"split_indices":[5,13,0,22,7,24,0,7,20,0,0,17,6,6,13,19,18,0,0,0,0,15,3,0,0,0,0,0,0,0,0,0,0],"split_type":[0,0,0,0,0,0,0,0,0,0,0,0,0,0,0,0,0,0,0,0,0,0,0,0,0,0,0,0,0,0,0,0,0],"sum_hessian":[4.2851657E2,4.2514197E2,3.3746278E0,9.715135E0,4.1542682E2,2.112286E0,7.602849E0,1.5763435E2,2.5779248E2,1.0724126E0,1.0398734E0,1.4408647E2,1.3547886E1,5.409546E0,2.5238292E2,6.670089E0,1.3741638E2,7.8284674E0,5.7194185E0,3.8546803E0,1.5548655E0,2.3427605E2,1.8106876E1,3.2423909E0,3.427698E0,1.3076486E2,6.651516E0,1.2778302E0,4.441588E0,2.1246652E2,2.1809519E1,3.3329375E0,1.4773939E1],"tree_param":{"num_deleted":"0","num_feature":"25","num_nodes":"33","size_leaf_vector":"1"}},{"base_weights":[1.4380012E-4,-6.3748932E-3,2.2228223E-1,-4.812362E-1,4.7932067E-3,-2.3627505E-1,-1.5989763E-1,-3.2459818E-2,7.957943E-2,-1.63767E-1,4.7094513E-2,-1.9407848E-1,2.052091E-2,-2.0081869E-1,1.9743603E-1,-9.199953E-2,3.240932E-1,2.9261023E-1,-4.0485257E-1,-1.2298286E-1,1.9367267E-1,-8.4729296E-1,-9.610206E-2,1.2979205E-1,7.692495E-1,-4.1870186E-3,1.538377E-1,-6.77775E-2,2.1143414E-1,1.261417E-1,-1.5332484E-1,-1.4648278E-1,8.367711E-2,1.5978907E-1,8.715263E-3,-8.3892584E-2,-3.7769914E-1,2.4339734E-2,-2.0008276E-1,1.7498022E-1,1.9603884E-2,9.901678E-2,2.5686574E-1],"categories":[],"categories_nodes":[],"categories_segments":[],"categories_sizes":[],"default_left":[0,0,0,0,0,0,0,0,0,0,0,0,0,0,0,0,0,0,0,0,0,0,0,0,0,0,0,0,0,0,0,0,0,0,0,0,0,0,0,0,0,0,0],"id":20,"left_children":[1,3,-1,5,7,-1,9,11,13,-1,15,17,19,21,23,-1,25,27,29,31,33,35,37,39,41,-1,-1,-1,-1,-1,-1,-1,-1,-1,-1,-1,-1,-1,-1,-1,-1,-1,-1],"loss_changes":[2.040917E0,2.224232E0,0E0,8.227515E-1,1.1457773E0,0E0,5.0175226E-1,2.3553605E0,4.5579844E0,0E0,5.696423E-1,7.082855E0,5.1851444E0,2.6912436E0,3.6431258E0,0E0,2.0985964E-1,4.6682477E0,4.405211E0,1.6901428E1,5.2588663E0,9.523635E-1,3.7343414E0,2.5258946E0,1.00643635E-1,0E0,0E0,0E0,0E0,0E0,0E0,0E0,0E0,0E0,0E0,0E0,0E0,0E0,0E0,0E0,0E0,0E0,0E0],"parents":[2147483647,0,0,1,1,3,3,4,4,6,6,7,7,8,8,10,10,11,11,12,12,13,13,14,14,16,16,17,17,18,18,19,19,20,20,21,21,22,22,23,23,24,24],"right_children":[2,4,-1,6,8,-1,10,12,14,-1,16,18,20,22,24,-1,26,28,30,32,34,36,38,40,42,-1,-1,-1,-1,-1,-1,-1,-1,-1,-1,-1,-1,-1,-1,-1,-1,-1,-1],"split_conditions":[1E0,0E0,2.2228223E-1,1E0,1E0,-2.3627505E-1,0E0,1E0,1E0,-1.63767E-1,1E0,0E0,0E0,1E0,0E0,-9.199953E-2,1E0,0E0,1E0,1E0,1E0,1E0,1E0,1E0,0E0,-4.1870186E-3,1.538377E-1,-6.77775E-2,2.1143414E-1,1.261417E-1,-1.5332484E-1,-1.4648278E-1,8.367711E-2,1.5978907E-1,8.715263E-3,-8.3892584E-2,-3.7769914E-1,2.4339734E-2,-2.0008276E-1,1.7498022E-1,1.9603884E-2,9.901678E-2,2.5686574E-1],"split_indices":[5,13,0,7,6,0,14,0,24,0,24,6,6,16,15,0,6,14,24,23,24,14,1,9,14,0,0,0,0,0,0,0,0,0,0,0,0,0,0,0,0,0,0],"split_type":[0,0,0,0,0,0,0,0,0,0,0,0,0,0,0,0,0,0,0,0,0,0,0,0,0,0,0,0,0,0,0,0,0,0,0,0,0,0,0,0,0,0,0],"sum_hessian":[4.20657E2,4.1797046E2,2.686565E0,8.637066E0,4.093334E2,3.6788743E0,4.9581914E0,2.736079E2,1.3572548E2,1.1592358E0,3.7989557E0,6.689138E1,2.0671654E2,3.99573E1,9.576819E1,1.6212854E0,2.1776702E0,2.009732E1,4.6794056E1,1.13193985E2,9.352255E1,4.581548E0,3.537575E1,8.6734695E1,9.033494E0,1.1118518E0,1.0658185E0,9.1003685E0,1.0996952E1,4.9988446E0,4.179521E1,5.9185425E1,5.4008556E1,2.9842054E1,6.3680496E1,2.6319242E0,1.9496241E0,2.7649126E1,7.726626E0,9.790801E0,7.694389E1,2.2857263E0,6.747768E0],"tree_param":{"num_deleted":"0","num_feature":"25","num_nodes":"43","size_leaf_vector":"1"}},{"base_weights":[1.4598862E-3,-3.8660457E-3,2.0800957E-1,-4.3078223E-1,5.2060853E-3,-2.2350326E-1,-1.3809451E-1,-5.8990017E-2,4.471102E-2,-1.10512204E-1,6.817347E-2,-1.883303E-2,-4.886463E-1,7.1035117E-1,2.9882144E-2,1.0347175E-1,-7.45374E-2,-1.1822355E-1,1.1435063E-1,-2.963703E-1,1.1665576E-1,5.953732E-2,2.4766867E-1,3.8484815E-3,2.8104907E-1,-1.4295705E-1,7.542698E-3,6.606409E-2,-3.190452E-1,-2.119522E-1,1.3523401E-1,1.0440544E-1,-6.666823E-3,-1.5243799E-2,2.3799318E-1],"categories":[],"categories_nodes":[],"categories_segments":[],"categories_sizes":[],"default_left":[0,0,0,0,0,0,0,0,0,0,0,0,0,0,0,0,0,0,0,0,0,0,0,0,0,0,0,0,0,0,0,0,0,0,0],"id":21,"left_children":[1,3,-1,5,7,-1,9,11,13,-1,15,17,19,21,23,-1,-1,25,27,-1,29,-1,-1,31,33,-1,-1,-1,-1,-1,-1,-1,-1,-1,-1],"loss_changes":[1.5267515E0,1.5956825E0,0E0,6.855676E-1,1.0268154E0,0E0,2.9424798E-1,2.6526334E0,2.4520674E0,0E0,4.2152414E-1,1.8949168E0,4.0881386E0,1.5560484E-1,1.6084614E0,0E0,0E0,4.2181077E0,7.871076E0,0E0,2.1988041E0,0E0,0E0,2.0181084E0,3.9679718E0,0E0,0E0,0E0,0E0,0E0,0E0,0E0,0E0,0E0,0E0],"parents":[2147483647,0,0,1,1,3,3,4,4,6,6,7,7,8,8,10,10,11,11,12,12,13,13,14,14,17,17,18,18,20,20,23,23,24,24],"right_children":[2,4,-1,6,8,-1,10,12,14,-1,16,18,20,22,24,-1,-1,26,28,-1,30,-1,-1,32,34,-1,-1,-1,-1,-1,-1,-1,-1,-1,-1],"split_conditions":[1E0,0E0,2.0800957E-1,1E0,1E0,-2.2350326E-1,1E0,0E0,1E0,-1.10512204E-1,0E0,1E0,1E0,0E0,0E0,1.0347175E-1,-7.45374E-2,0E0,0E0,-2.963703E-1,1E0,5.953732E-2,2.4766867E-1,1E0,1E0,-1.4295705E-1,7.542698E-3,6.606409E-2,-3.190452E-1,-2.119522E-1,1.3523401E-1,1.0440544E-1,-6.666823E-3,-1.5243799E-2,2.3799318E-1],"split_indices":[5,13,0,7,7,0,0,7,20,0,6,8,6,14,15,0,0,14,1,0,3,0,0,2,24,0,0,0,0,0,0,0,0,0,0],"split_type":[0,0,0,0,0,0,0,0,0,0,0,0,0,0,0,0,0,0,0,0,0,0,0,0,0,0,0,0,0,0,0,0,0,0,0],"sum_hessian":[4.1258325E2,4.1041846E2,2.1647782E0,7.572818E0,4.0284564E2,2.9067392E0,4.6660786E0,1.5327625E2,2.495694E2,1.8333782E0,2.8327003E0,1.4112967E2,1.2146577E1,4.4165287E0,2.4515288E2,1.4639376E0,1.3687626E0,8.088226E1,6.0247402E1,6.309996E0,5.8365803E0,1.3115858E0,3.1049428E0,2.2304898E2,2.2103891E1,2.2450401E1,5.843186E1,5.6024952E1,4.2224503E0,1.3633263E0,4.473254E0,1.4836864E1,2.0821211E2,1.39605465E1,8.143345E0],"tree_param":{"num_deleted":"0","num_feature":"25","num_nodes":"35","size_leaf_vector":"1"}},{"base_weights":[-9.860238E-5,-4.500402E-3,1.9373374E-1,-3.7694278E-1,2.8438328E-3,-2.100163E-1,-1.1456796E-1,1.2587194E-1,-1.538842E-2,4.651616E-2,-2.588708E-1,2.4895422E-1,-4.597093E-1,-1.0963637E0,-2.3403545E-3,-1.1098721E-1,-2.7758475E-2,7.029285E-1,-2.941153E-1,-1.0383044E0,2.437846E-1,-5.3083533E-1,9.110522E-2,-6.1759327E-2,1.0352048E-1,-7.234827E-2,2.4435894E-1,-3.915608E-1,-2.895478E-2,-3.756467E-1,-4.8137523E-2,-3.275192E-2,1.140724E-1,4.77601E-2,-1.8447664E-1],"categories":[],"categories_nodes":[],"categories_segments":[],"categories_sizes":[],"default_left":[0,0,0,0,0,0,0,0,0,0,0,0,0,0,0,0,0,0,0,0,0,0,0,0,0,0,0,0,0,0,0,0,0,0,0],"id":22,"left_children":[1,3,-1,5,7,-1,9,11,13,-1,15,17,19,21,23,-1,-1,25,27,29,-1,-1,-1,31,33,-1,-1,-1,-1,-1,-1,-1,-1,-1,-1],"loss_changes":[1.1621188E0,1.1115295E0,0E0,5.859767E-1,8.9718175E-1,0E0,2.5538585E-1,3.8350825E0,4.9127893E0,0E0,3.927985E-2,1.08831005E1,7.7026405E0,4.4520965E0,2.178618E0,0E0,0E0,2.7127075E0,3.9542608E0,1.0838251E0,0E0,0E0,0E0,4.690035E0,5.0792212E0,0E0,0E0,0E0,0E0,0E0,0E0,0E0,0E0,0E0,0E0],"parents":[2147483647,0,0,1,1,3,3,4,4,6,6,7,7,8,8,10,10,11,11,12,12,13,13,14,14,17,17,18,18,19,19,23,23,24,24],"right_children":[2,4,-1,6,8,-1,10,12,14,-1,16,18,20,22,24,-1,-1,26,28,30,-1,-1,-1,32,34,-1,-1,-1,-1,-1,-1,-1,-1,-1,-1],"split_conditions":[1E0,0E0,1.9373374E-1,1E0,1E0,-2.100163E-1,1E0,1E0,1E0,4.651616E-2,1E0,1E0,1E0,1E0,1E0,-1.1098721E-1,-2.7758475E-2,1E0,1E0,1E0,2.437846E-1,-5.3083533E-1,9.110522E-2,1E0,1E0,-7.234827E-2,2.4435894E-1,-3.915608E-1,-2.895478E-2,-3.756467E-1,-4.8137523E-2,-3.275192E-2,1.140724E-1,4.77601E-2,-1.8447664E-1],"split_indices":[5,13,0,7,21,0,19,8,10,0,23,16,10,6,8,0,0,11,17,19,0,0,0,13,13,0,0,0,0,0,0,0,0,0,0],"split_type":[0,0,0,0,0,0,0,0,0,0,0,0,0,0,0,0,0,0,0,0,0,0,0,0,0,0,0,0,0,0,0,0,0,0,0],"sum_hessian":[4.0673917E2,4.0497223E2,1.7669435E0,6.8580947E0,3.9811414E2,2.3257792E0,4.5323153E0,5.0621967E1,3.4749216E2,1.5540873E0,2.978228E0,4.2304848E1,8.31712E0,3.1542149E0,3.4433795E2,1.0517691E0,1.926459E0,2.288226E1,1.9422586E1,5.8436337E0,2.4734864E0,1.9519461E0,1.2022687E0,2.2081345E2,1.235245E2,2.296251E0,2.0586008E1,2.258888E0,1.71637E1,4.356062E0,1.4875716E0,2.0010141E2,2.0712029E1,1.1536224E2,8.162252E0],"tree_param":{"num_deleted":"0","num_feature":"25","num_nodes":"35","size_leaf_vector":"1"}},{"base_weights":[-1.5619484E-3,-7.602439E-2,4.368861E-2,-4.365725E-2,-4.417195E-1,-8.631402E-2,9.289516E-2,-2.3221773E-1,-2.8473647E-2,-2.789989E-1,6.1249807E-2,-5.032208E-1,7.2753824E-2,5.741021E-2,6.567381E-1,5.3509617E-1,-4.5375533E-2,-2.1192323E-1,3.6391047E-1,2.4839103E-1,-8.331042E-1,3.5693052E-1,-1.7496292E-1,-9.7325265E-2,1.5394351E-1,-1.5706781E-3,2.3881857E-1,-1.862683E-1,3.3175272E-1,-7.866609E-1,-1.5062368E-2,-1.7482519E-1,7.434933E-1,-1.7854924E0,-4.8950955E-1,5.257973E-1,8.762506E-2,2.1845937E-1,-3.1110832E-1,-3.056134E-1,5.67196E-2,-9.975147E-2,4.0465674E-1,-3.3357432E-1,6.5468006E-2,-4.869603E-2,1.8351393E-2,2.833761E-1,1.2239705E-2,-1.5618318E-1,-6.406184E-1,-2.8487757E-1,7.7595666E-2,-9.82944E-2,1.9447243E-1,7.6317064E-2,-4.0731106E-2,1.4705506E-1,-1.5120514E-1,-2.4348885E-1,4.6130225E-2,1.331916E-1,-8.673269E-2,9.515896E-2,-1.0842832E-1,1.7945835E-1,9.407891E-3],"categories":[],"categories_nodes":[],"categories_segments":[],"categories_sizes":[],"default_left":[0,0,0,0,0,0,0,0,0,0,0,0,0,0,0,0,0,0,0,0,0,0,0,0,0,0,0,0,0,0,0,0,0,0,0,0,0,0,0,0,0,0,0,0,0,0,0,0,0,0,0,0,0,0,0,0,0,0,0,0,0,0,0,0,0,0,0],"id":23,"left_children":[1,3,5,7,9,11,13,-1,15,-1,17,19,21,23,25,27,29,-1,31,-1,33,35,37,39,41,-1,-1,-1,-1,43,45,-1,47,49,51,53,55,-1,57,59,61,63,65,-1,-1,-1,-1,-1,-1,-1,-1,-1,-1,-1,-1,-1,-1,-1,-1,-1,-1,-1,-1,-1,-1,-1,-1],"loss_changes":[1.3710593E0,1.8011687E0,1.6272295E0,1.5572367E0,3.10129E0,4.6800494E0,3.6457944E0,0E0,1.3629978E0,0E0,1.8937643E0,9.2370205E0,3.69173E0,2.6184843E0,1.0006518E0,3.438147E0,3.0749876E0,0E0,2.4859421E0,0E0,4.393403E0,1.0608213E0,3.696011E0,2.1855206E0,6.892024E0,0E0,0E0,0E0,0E0,2.0001783E0,1.5029233E0,0E0,5.997269E-1,6.0989857E-1,4.7916136E0,1.754755E0,4.2870185E-1,0E0,4.1455336E0,6.839421E0,5.443628E0,6.0439878E0,3.909851E0,0E0,0E0,0E0,0E0,0E0,0E0,0E0,0E0,0E0,0E0,0E0,0E0,0E0,0E0,0E0,0E0,0E0,0E0,0E0,0E0,0E0,0E0,0E0,0E0],"parents":[2147483647,0,0,1,1,2,2,3,3,4,4,5,5,6,6,8,8,10,10,11,11,12,12,13,13,14,14,15,15,16,16,18,18,20,20,21,21,22,22,23,23,24,24,29,29,30,30,32,32,33,33,34,34,35,35,36,36,38,38,39,39,40,40,41,41,42,42],"right_children":[2,4,6,8,10,12,14,-1,16,-1,18,20,22,24,26,28,30,-1,32,-1,34,36,38,40,42,-1,-1,-1,-1,44,46,-1,48,50,52,54,56,-1,58,60,62,64,66,-1,-1,-1,-1,-1,-1,-1,-1,-1,-1,-1,-1,-1,-1,-1,-1,-1,-1,-1,-1,-1,-1,-1,-1],"split_conditions":[1E0,0E0,1E0,1E0,1E0,1E0,1E0,-2.3221773E-1,1E0,-2.789989E-1,1E0,1E0,0E0,1E0,1E0,1E0,1E0,-2.1192323E-1,1E0,2.4839103E-1,1E0,0E0,1E0,0E0,0E0,-1.5706781E-3,2.3881857E-1,-1.862683E-1,3.3175272E-1,1E0,0E0,-1.7482519E-1,0E0,1E0,0E0,1E0,1E0,2.1845937E-1,0E0,1E0,1E0,1E0,1E0,-3.3357432E-1,6.5468006E-2,-4.869603E-2,1.8351393E-2,2.833761E-1,1.2239705E-2,-1.5618318E-1,-6.406184E-1,-2.8487757E-1,7.7595666E-2,-9.82944E-2,1.9447243E-1,7.6317064E-2,-4.0731106E-2,1.4705506E-1,-1.5120514E-1,-2.4348885E-1,4.6130225E-2,1.331916E-1,-8.673269E-2,9.515896E-2,-1.0842832E-1,1.7945835E-1,9.407891E-3],"split_indices":[7,7,0,20,6,12,13,0,22,0,0,24,14,24,10,12,19,0,3,0,3,1,22,6,14,0,0,0,0,1,6,0,14,9,14,16,17,0,6,23,6,12,14,0,0,0,0,0,0,0,0,0,0,0,0,0,0,0,0,0,0,0,0,0,0,0,0],"split_type":[0,0,0,0,0,0,0,0,0,0,0,0,0,0,0,0,0,0,0,0,0,0,0,0,0,0,0,0,0,0,0,0,0,0,0,0,0,0,0,0,0,0,0,0,0,0,0,0,0,0,0,0,0,0,0,0,0,0,0,0,0,0,0,0,0,0,0],"sum_hessian":[4.0492108E2,1.5279988E2,2.5212122E2,1.4140382E2,1.1396064E1,6.901938E1,1.8310184E2,1.8618174E0,1.3954199E2,5.3516912E0,6.044372E0,1.8463678E1,5.05557E1,1.7329735E2,9.804491E0,3.1704018E0,1.363716E2,1.3319775E0,4.7123947E0,3.3669622E0,1.5096717E1,2.3339787E1,2.7215914E1,6.6574814E1,1.0672253E2,1.872072E0,7.9324193E0,1.0188854E0,2.1515164E0,4.3772855E0,1.3199431E2,1.195539E0,3.5168557E0,2.8898945E0,1.2206822E1,1.37595215E1,9.580264E0,2.9955266E0,2.4220387E1,2.7885786E1,3.868903E1,5.3345108E1,5.337742E1,3.2264645E0,1.1508209E0,4.463852E1,8.73558E1,2.4667087E0,1.050147E0,1.165291E0,1.7246037E0,7.391923E0,4.8148994E0,1.516123E0,1.2243399E1,5.4059596E0,4.174305E0,4.400571E0,1.9819815E1,1.2904481E1,1.4981305E1,1.8117548E1,2.0571484E1,2.0487963E1,3.2857147E1,3.475569E1,1.8621727E1],"tree_param":{"num_deleted":"0","num_feature":"25","num_nodes":"67","size_leaf_vector":"1"}},{"base_weights":[-9.234121E-4,-6.1474495E-2,3.6130246E-2,-3.6444265E-2,-4.3495533E-1,2.3690182E-1,2.7493257E-3,-2.1423145E-1,-2.3641312E-2,1.4273106E-2,-6.12127E-1,4.5044395E-1,-2.0998098E-1,-1.033262E0,2.0307077E-2,5.3693515E-1,-3.83041E-2,-1.1971443E-1,1.5202285E-1,-1.2525034E-2,-2.4671116E-1,1.8374383E-1,8.100282E-1,-5.977884E-1,3.576423E-1,1.7028709E-1,-5.720818E-1,2.5431654E-1,-5.2780663E-3,4.087015E-2,2.0055173E-1,-6.699483E-1,-1.5286663E-2,-4.8201886E-1,4.564097E-1,3.0018407E-1,-2.9402262E-2,-4.0082255E-1,-7.4878216E-2,-1.002351E-1,2.3703411E-1,1.1975648E-1,2.3575248E-1,-8.0964124E-1,1.5278743E-2,-2.9690278E-1,7.3358305E-2,3.0429056E-3,-9.689175E-2,-2.8597575E-1,1.5158053E-1,2.839801E-1,-4.4622432E-2,-3.1440684E-1,2.3646638E-1,1.03885524E-1,-1.17745556E-1,-3.418073E-1,-2.2976896E-2,-2.6943465E-3,1.4479516E-1],"categories":[],"categories_nodes":[],"categories_segments":[],"categories_sizes":[],"default_left":[0,0,0,0,0,0,0,0,0,0,0,0,0,0,0,0,0,0,0,0,0,0,0,0,0,0,0,0,0,0,0,0,0,0,0,0,0,0,0,0,0,0,0,0,0,0,0,0,0,0,0,0,0,0,0,0,0,0,0,0,0],"id":24,"left_children":[1,3,5,7,9,11,13,-1,15,17,19,21,23,25,27,29,31,-1,-1,-1,-1,33,35,37,39,-1,-1,41,43,-1,-1,45,47,49,51,-1,-1,-1,53,-1,-1,55,-1,57,59,-1,-1,-1,-1,-1,-1,-1,-1,-1,-1,-1,-1,-1,-1,-1,-1],"loss_changes":[8.916295E-1,1.3944385E0,1.6517313E0,1.2192512E0,7.5561464E-1,3.447648E0,3.8848345E0,0E0,1.1784539E0,9.4137836E-1,7.754247E-1,2.1617785E0,2.86486E0,6.0605106E0,1.2577891E0,1.01742744E-1,1.9991921E0,0E0,0E0,0E0,0E0,2.9659986E0,1.8229065E0,2.8066823E0,1.9135954E0,0E0,0E0,1.3866401E0,3.1565819E0,0E0,0E0,1.6559877E0,1.0546765E0,2.7527637E0,3.4766119E0,0E0,0E0,0E0,5.417825E0,0E0,0E0,2.1898627E0,0E0,1.0625229E0,2.1177678E0,0E0,0E0,0E0,0E0,0E0,0E0,0E0,0E0,0E0,0E0,0E0,0E0,0E0,0E0,0E0,0E0],"parents":[2147483647,0,0,1,1,2,2,3,3,4,4,5,5,6,6,8,8,9,9,10,10,11,11,12,12,13,13,14,14,15,15,16,16,21,21,22,22,23,23,24,24,27,27,28,28,31,31,32,32,33,33,34,34,38,38,41,41,43,43,44,44],"right_children":[2,4,6,8,10,12,14,-1,16,18,20,22,24,26,28,30,32,-1,-1,-1,-1,34,36,38,40,-1,-1,42,44,-1,-1,46,48,50,52,-1,-1,-1,54,-1,-1,56,-1,58,60,-1,-1,-1,-1,-1,-1,-1,-1,-1,-1,-1,-1,-1,-1,-1,-1],"split_conditions":[1E0,1E0,1E0,1E0,1E0,1E0,1E0,-2.1423145E-1,1E0,1E0,1E0,1E0,1E0,1E0,1E0,1E0,1E0,-1.1971443E-1,1.5202285E-1,-1.2525034E-2,-2.4671116E-1,1E0,1E0,1E0,1E0,1.7028709E-1,-5.720818E-1,1E0,1E0,4.087015E-2,2.0055173E-1,1E0,0E0,0E0,1E0,3.0018407E-1,-2.9402262E-2,-4.0082255E-1,1E0,-1.002351E-1,2.3703411E-1,1E0,2.3575248E-1,1E0,0E0,-2.9690278E-1,7.3358305E-2,3.0429056E-3,-9.689175E-2,-2.8597575E-1,1.5158053E-1,2.839801E-1,-4.4622432E-2,-3.1440684E-1,2.3646638E-1,1.03885524E-1,-1.17745556E-1,-3.418073E-1,-2.2976896E-2,-2.6943465E-3,1.4479516E-1],"split_indices":[7,18,9,20,11,14,21,0,22,24,0,6,19,19,17,14,19,0,0,0,0,12,13,12,16,0,0,14,4,0,0,1,7,14,19,0,0,0,17,0,0,4,0,6,15,0,0,0,0,0,0,0,0,0,0,0,0,0,0,0,0],"split_type":[0,0,0,0,0,0,0,0,0,0,0,0,0,0,0,0,0,0,0,0,0,0,0,0,0,0,0,0,0,0,0,0,0,0,0,0,0,0,0,0,0,0,0,0,0,0,0,0,0,0,0,0,0,0,0,0,0,0,0,0,0],"sum_hessian":[3.9541333E2,1.4986044E2,2.4555287E2,1.4147644E2,8.383999E0,3.4136986E1,2.114159E2,1.6076367E0,1.398688E2,2.6313941E0,5.7526045E0,2.3093723E1,1.1043263E1,2.5591898E0,2.088567E2,2.657319E0,1.3721149E2,1.5338016E0,1.0975925E0,1.8721538E0,3.8804507E0,1.4126916E1,8.966806E0,6.5292525E0,4.5140104E0,1.0272357E0,1.5319542E0,1.9703405E1,1.891533E2,1.1599886E0,1.4973303E0,3.836067E0,1.3337541E2,3.8815687E0,1.0245348E1,7.3270054E0,1.6398015E0,2.0623646E0,4.466888E0,1.8239449E0,2.6900656E0,1.6700771E1,3.0026338E0,3.7570965E0,1.853962E2,2.7813816E0,1.0546854E0,1.2408689E2,9.288524E0,2.6508074E0,1.2307613E0,5.3485904E0,4.8967576E0,1.9988877E0,2.4680004E0,1.1804464E1,4.896307E0,2.209174E0,1.5479226E0,1.7718008E2,8.216114E0],"tree_param":{"num_deleted":"0","num_feature":"25","num_nodes":"61","size_leaf_vector":"1"}},{"base_weights":[-1.2456198E-3,-4.8215506E-3,1.7522164E-1,-3.8601628E-1,1.7828967E-3,-5.0577956E-1,4.172281E-3,1.12567775E-1,-1.2744967E-2,-6.699411E-2,-2.0393018E-1,2.3707692E-1,-1.948705E-1,-8.072149E-1,-3.5498268E-3,-1.5068576E-1,4.5480838E-1,4.049708E-2,-3.8166478E-1,-3.895055E-1,6.7662165E-2,-2.592596E-1,1.9077009E-3,-1.231027E-1,3.2963753E-1,2.5953996E-1,3.1655304E-2,2.5201E-1,-5.6681406E-2,-1.3882104E-2,2.6244981E-2],"categories":[],"categories_nodes":[],"categories_segments":[],"categories_sizes":[],"default_left":[0,0,0,0,0,0,0,0,0,0,0,0,0,0,0,0,0,0,0,0,0,0,0,0,0,0,0,0,0,0,0],"id":25,"left_children":[1,3,-1,5,7,9,-1,11,13,-1,-1,15,17,19,21,23,25,27,-1,-1,-1,-1,29,-1,-1,-1,-1,-1,-1,-1,-1],"loss_changes":[8.1943816E-1,9.7947437E-1,0E0,3.2438272E-1,6.181097E-1,1.0009909E-1,0E0,1.7504487E0,2.4782412E0,0E0,0E0,2.7820187E0,3.444908E0,2.2616189E0,1.5833744E0,4.4441276E0,2.8943071E0,2.3512177E0,0E0,0E0,0E0,0E0,1.3878887E0,0E0,0E0,0E0,0E0,0E0,0E0,0E0,0E0],"parents":[2147483647,0,0,1,1,3,3,4,4,5,5,7,7,8,8,11,11,12,12,13,13,14,14,15,15,16,16,17,17,22,22],"right_children":[2,4,-1,6,8,10,-1,12,14,-1,-1,16,18,20,22,24,26,28,-1,-1,-1,-1,30,-1,-1,-1,-1,-1,-1,-1,-1],"split_conditions":[1E0,0E0,1.7522164E-1,1E0,1E0,0E0,4.172281E-3,1E0,1E0,-6.699411E-2,-2.0393018E-1,1E0,1E0,1E0,1E0,1E0,1E0,0E0,-3.8166478E-1,-3.895055E-1,6.7662165E-2,-2.592596E-1,1E0,-1.231027E-1,3.2963753E-1,2.5953996E-1,3.1655304E-2,2.5201E-1,-5.6681406E-2,-1.3882104E-2,2.6244981E-2],"split_indices":[5,13,0,6,21,6,0,14,10,0,0,7,9,12,19,9,24,7,0,0,0,0,8,0,0,0,0,0,0,0,0],"split_type":[0,0,0,0,0,0,0,0,0,0,0,0,0,0,0,0,0,0,0,0,0,0,0,0,0,0,0,0,0,0,0],"sum_hessian":[3.891578E2,3.8778046E2,1.3773371E0,5.6257563E0,3.821547E2,4.125595E0,1.5001614E0,4.3521923E1,3.3863278E2,2.442974E0,1.682621E0,3.1139591E1,1.2382331E1,2.881494E0,3.3575128E2,1.1308309E1,1.9831284E1,1.0952048E1,1.4302831E0,1.7785264E0,1.1029677E0,1.1241469E0,3.3462714E2,9.918676E0,1.3896325E0,8.43985E0,1.1391433E1,1.8486289E0,9.103419E0,2.1438295E2,1.20244194E2],"tree_param":{"num_deleted":"0","num_feature":"25","num_nodes":"31","size_leaf_vector":"1"}},{"base_weights":[-1.3096016E-3,-6.445676E-2,2.5881242E-2,-1.0620918E-1,4.5788902E-1,-7.6818806E-3,2.997973E-1,-3.6133282E-2,-4.5337132E-1,-1.2189015E-1,2.3056443E-1,4.295838E-1,-1.748725E-2,2.850039E-1,1.808295E-1,6.8930054E-1,-1.0464192E-1,3.6558613E-1,-6.551173E-1,-2.72906E-1,1.9246356E-1,-1.9636843E-1,2.694642E-1,-2.877917E-1,-4.443323E-3,-3.144464E-1,2.7965534E-1,2.517801E-1,1.0932867E-2,-2.9306975E-1,3.553343E-2,-1.0401369E-1,2.2354233E-1,-2.5066823E-1,-1.576332E0,2.0395392E-1,-2.2994787E-2,-1.9224861E-1,6.720033E-2,3.4222507E-1,-1.4230335E-1,-1.2562333E-1,8.192005E-2,7.877101E-2,-6.9742516E-2,-1.6819039E-1,1.1217507E-1,-6.1460304E-1,-2.0202418E-1,1.7697734E-1,-1.97279E-1,-1.6794123E-1,-1.8365751E-3,2.2720562E-2,1.6339633E-1],"categories":[],"categories_nodes":[],"categories_segments":[],"categories_sizes":[],"default_left":[0,0,0,0,0,0,0,0,0,0,0,0,0,0,0,0,0,0,0,0,0,0,0,0,0,0,0,0,0,0,0,0,0,0,0,0,0,0,0,0,0,0,0,0,0,0,0,0,0,0,0,0,0,0,0],"id":26,"left_children":[1,3,5,7,9,11,13,15,17,19,-1,21,23,-1,25,27,29,31,33,-1,-1,-1,-1,-1,35,37,39,-1,-1,41,43,-1,-1,45,47,49,51,-1,-1,53,-1,-1,-1,-1,-1,-1,-1,-1,-1,-1,-1,-1,-1,-1,-1],"loss_changes":[6.6850466E-1,2.6042614E0,2.504641E0,2.643114E0,1.6897725E0,1.0513189E0,2.1284046E0,4.6466675E0,3.2587297E0,2.9621325E0,0E0,3.3205972E0,2.932739E0,0E0,1.3787231E0,7.5994825E-1,2.2547593E0,1.408371E0,5.201124E0,0E0,0E0,0E0,0E0,0E0,9.2021775E-1,9.972031E-1,1.2244943E0,0E0,0E0,2.7009826E0,3.080077E0,0E0,0E0,2.460563E0,4.9413872E-1,6.8586736E0,1.9742972E0,0E0,0E0,1.1115558E0,0E0,0E0,0E0,0E0,0E0,0E0,0E0,0E0,0E0,0E0,0E0,0E0,0E0,0E0,0E0],"parents":[2147483647,0,0,1,1,2,2,3,3,4,4,5,5,6,6,7,7,8,8,9,9,11,11,12,12,14,14,15,15,16,16,17,17,18,18,24,24,25,25,26,26,29,29,30,30,33,33,34,34,35,35,36,36,39,39],"right_children":[2,4,6,8,10,12,14,16,18,20,-1,22,24,-1,26,28,30,32,34,-1,-1,-1,-1,-1,36,38,40,-1,-1,42,44,-1,-1,46,48,50,52,-1,-1,54,-1,-1,-1,-1,-1,-1,-1,-1,-1,-1,-1,-1,-1,-1,-1],"split_conditions":[1E0,1E0,1E0,1E0,0E0,1E0,1E0,1E0,1E0,1E0,2.3056443E-1,1E0,1E0,2.850039E-1,1E0,1E0,1E0,1E0,1E0,-2.72906E-1,1.9246356E-1,-1.9636843E-1,2.694642E-1,-2.877917E-1,1E0,1E0,1E0,2.517801E-1,1.0932867E-2,1E0,1E0,-1.0401369E-1,2.2354233E-1,1E0,0E0,1E0,1E0,-1.9224861E-1,6.720033E-2,0E0,-1.4230335E-1,-1.2562333E-1,8.192005E-2,7.877101E-2,-6.9742516E-2,-1.6819039E-1,1.1217507E-1,-6.1460304E-1,-2.0202418E-1,1.7697734E-1,-1.97279E-1,-1.6794123E-1,-1.8365751E-3,2.2720562E-2,1.6339633E-1],"split_indices":[24,13,1,1,6,2,16,0,9,7,0,16,4,0,21,14,23,17,14,0,0,0,0,0,16,6,18,0,0,14,6,0,0,0,6,8,9,0,0,7,0,0,0,0,0,0,0,0,0,0,0,0,0,0,0],"split_type":[0,0,0,0,0,0,0,0,0,0,0,0,0,0,0,0,0,0,0,0,0,0,0,0,0,0,0,0,0,0,0,0,0,0,0,0,0,0,0,0,0,0,0,0,0,0,0,0,0,0,0,0,0,0,0],"sum_hessian":[3.8736746E2,1.16181244E2,2.711862E2,1.0831965E2,7.8615956E0,2.4245053E2,2.8735674E1,9.1045815E1,1.7273838E1,2.954775E0,4.9068203E0,4.3785853E0,2.3807195E2,3.364054E0,2.537162E1,7.0743585E0,8.397146E1,3.2537234E0,1.4020114E1,1.3599052E0,1.5948699E0,1.201723E0,3.1768622E0,2.2611966E0,2.3581075E2,3.857506E0,2.1514114E1,5.520686E0,1.5536722E0,3.535521E1,4.8616245E1,1.1611537E0,2.0925698E0,1.0626691E1,3.3934236E0,1.8458937E1,2.173518E2,2.28332E0,1.574186E0,2.0369867E1,1.1442481E0,2.9145622E1,6.2095876E0,2.6330944E1,2.22853E1,7.170523E0,3.4561672E0,1.3948063E0,1.9986173E0,1.296566E1,5.4932775E0,5.6429806E0,2.1170883E2,9.386741E0,1.0983127E1],"tree_param":{"num_deleted":"0","num_feature":"25","num_nodes":"55","size_leaf_vector":"1"}},{"base_weights":[-5.279228E-4,-3.00574E-1,4.64528E-3,-1.7756468E-1,-1.0100431E-1,1.113137E-1,-8.50595E-3,-9.7760856E-2,9.261847E-2,-1.2281408E-1,2.595046E-1,-7.126291E-1,-7.346215E-4,9.15229E-2,-5.2812602E-2,-7.7767044E-1,2.540419E-1,1.0091774E0,-6.799891E-2,-3.1572407E-1,-1.7772248E-2,-2.1161729E-1,3.8808787E-3,-4.809887E-3,-1.2242352E0,2.5118285E-1,-3.4162868E-2,6.6392206E-2,3.2906637E-1,1.4887401E-1,-3.6137423E-1,-3.448085E-2,7.1909815E-2,-1.4248109E-1,-4.8161536E-1,5.39703E-2,-1.8043952E-1,-1.04346566E-1,1.285476E-1,-2.8532496E-2,-2.9347047E-1,-1.9374691E-2,8.436744E-2,3.5090968E-2,-1.5503436E-1],"categories":[],"categories_nodes":[],"categories_segments":[],"categories_sizes":[],"default_left":[0,0,0,0,0,0,0,0,0,0,0,0,0,0,0,0,0,0,0,0,0,0,0,0,0,0,0,0,0,0,0,0,0,0,0,0,0,0,0,0,0,0,0,0,0],"id":27,"left_children":[1,3,5,-1,7,9,11,-1,13,15,17,19,21,-1,-1,23,25,27,29,-1,-1,-1,31,-1,33,-1,35,-1,-1,37,39,41,43,-1,-1,-1,-1,-1,-1,-1,-1,-1,-1,-1,-1],"loss_changes":[5.977396E-1,3.1966996E-1,5.321468E-1,0E0,2.5132218E-1,1.4763446E0,1.8491822E0,0E0,2.539306E-1,4.347543E0,6.4071484E0,7.5666904E-1,1.0933895E0,0E0,0E0,2.1532934E0,1.9494452E0,3.0403233E-1,1.2565874E0,0E0,0E0,0E0,8.745291E-1,0E0,3.8394356E-1,0E0,1.1536585E0,0E0,0E0,1.7569878E0,1.2746191E0,2.0551143E0,3.2651656E0,0E0,0E0,0E0,0E0,0E0,0E0,0E0,0E0,0E0,0E0,0E0,0E0],"parents":[2147483647,0,0,1,1,2,2,4,4,5,5,6,6,8,8,9,9,10,10,11,11,12,12,15,15,16,16,17,17,18,18,22,22,24,24,26,26,29,29,30,30,31,31,32,32],"right_children":[2,4,6,-1,8,10,12,-1,14,16,18,20,22,-1,-1,24,26,28,30,-1,-1,-1,32,-1,34,-1,36,-1,-1,38,40,42,44,-1,-1,-1,-1,-1,-1,-1,-1,-1,-1,-1,-1],"split_conditions":[0E0,1E0,1E0,-1.7756468E-1,1E0,1E0,1E0,-9.7760856E-2,0E0,0E0,0E0,0E0,1E0,9.15229E-2,-5.2812602E-2,0E0,1E0,1E0,1E0,-3.1572407E-1,-1.7772248E-2,-2.1161729E-1,1E0,-4.809887E-3,1E0,2.5118285E-1,1E0,6.6392206E-2,3.2906637E-1,1E0,1E0,1E0,1E0,-1.4248109E-1,-4.8161536E-1,5.39703E-2,-1.8043952E-1,-1.04346566E-1,1.285476E-1,-2.8532496E-2,-2.9347047E-1,-1.9374691E-2,8.436744E-2,3.5090968E-2,-1.5503436E-1],"split_indices":[13,7,21,0,0,23,10,0,6,6,6,6,19,0,0,14,24,12,14,0,0,0,8,0,16,0,8,0,0,0,9,13,13,0,0,0,0,0,0,0,0,0,0,0,0],"split_type":[0,0,0,0,0,0,0,0,0,0,0,0,0,0,0,0,0,0,0,0,0,0,0,0,0,0,0,0,0,0,0,0,0,0,0,0,0,0,0,0,0,0,0,0,0],"sum_hessian":[3.8319244E2,5.5269494E0,3.776655E2,1.4478124E0,4.079137E0,4.0632763E1,3.3703275E2,1.5712928E0,2.5078442E0,1.5816078E1,2.4816685E1,2.6890705E0,3.3434366E2,1.3247111E0,1.1831331E0,5.3886814E0,1.0427397E1,6.9124026E0,1.7904284E1,1.367317E0,1.3217535E0,1.1876798E0,3.33156E2,2.3745966E0,3.0140848E0,2.8185039E0,7.608893E0,1.0453709E0,5.8670316E0,1.0577549E1,7.326733E0,2.1334386E2,1.19812126E2,1.7735475E0,1.2405374E0,6.020152E0,1.5887403E0,3.722037E0,6.855512E0,5.9238877E0,1.4028459E0,1.9549913E2,1.7844738E1,1.1203775E2,7.774379E0],"tree_param":{"num_deleted":"0","num_feature":"25","num_nodes":"45","size_leaf_vector":"1"}},{"base_weights":[-2.8444994E-3,-6.329684E-2,3.4611728E-2,-1.9315289E-1,-2.047086E-2,1.7197834E-2,2.8196564E-1,-4.442908E-1,9.799908E-3,-1.5171047E-1,7.2898656E-2,2.0395397E-1,8.467964E-3,-1.0820156E-1,5.8994734E-1,-2.7260163E-1,-6.812785E-2,1.603359E-1,-2.71999E-1,2.66234E-1,-4.150095E-1,-2.1080388E-1,1.6954862E-1,-2.3945903E-2,6.929807E-2,4.7348797E-1,-7.233596E-1,1.3140541E-2,2.1869762E-1,-3.0491328E-1,1.6854866E-1,2.6556867E-1,-2.1255329E-1,4.000051E-1,-2.2541721E-1,3.9252168E-1,-6.00845E-1,-3.8529906E-1,2.0043425E-1,9.4974357E-1,9.380349E-2,2.1643971E-1,-5.2702736E-2,-1.4329171E-1,1.8917923E-1,2.0517106E-1,5.4558057E-2,8.291904E-2,-3.395921E-1,-1.3813147E-1,3.713067E-2,1.6585573E-3,1.1654343E-1,1.6987118E-1,-1.6027188E-1,-2.0584303E-1,2.1469673E-2,-1.5053576E-1,1.5160266E-1,5.669704E-2,3.4748244E-1,4.2759728E-2,-1.934676E-1,-1.232785E-1,1.3072284E-1,-1.3663435E-1,-7.0701153E-3,-2.6812404E-1,-2.9796092E-3,6.917276E-2,-1.3361977E-1],"categories":[],"categories_nodes":[],"categories_segments":[],"categories_sizes":[],"default_left":[0,0,0,0,0,0,0,0,0,0,0,0,0,0,0,0,0,0,0,0,0,0,0,0,0,0,0,0,0,0,0,0,0,0,0,0,0,0,0,0,0,0,0,0,0,0,0,0,0,0,0,0,0,0,0,0,0,0,0,0,0,0,0,0,0,0,0,0,0,0,0],"id":28,"left_children":[1,3,5,7,9,11,13,15,17,19,21,-1,23,25,27,-1,29,31,-1,33,35,37,39,41,43,45,47,-1,-1,49,-1,51,-1,53,-1,-1,55,57,-1,59,61,63,65,67,69,-1,-1,-1,-1,-1,-1,-1,-1,-1,-1,-1,-1,-1,-1,-1,-1,-1,-1,-1,-1,-1,-1,-1,-1,-1,-1],"loss_changes":[8.687762E-1,8.122418E-1,1.0157797E0,1.8535187E0,1.3771807E0,1.2809577E0,1.9286906E0,2.7743738E0,3.0485275E0,5.2461424E0,1.8404273E0,0E0,4.365249E-1,3.094642E0,6.3845897E-1,0E0,1.6706315E0,1.9184223E0,0E0,2.838902E0,1.0081168E1,2.8907695E0,2.8448224E0,1.0111545E0,1.9875824E0,1.5528786E-1,2.0015347E0,0E0,0E0,5.8726805E-1,0E0,5.606009E-1,0E0,2.963259E0,0E0,0E0,1.5909786E0,1.8056698E0,0E0,4.606843E-1,1.7607847E0,2.3320177E0,1.5144355E0,2.824037E0,1.4061532E0,0E0,0E0,0E0,0E0,0E0,0E0,0E0,0E0,0E0,0E0,0E0,0E0,0E0,0E0,0E0,0E0,0E0,0E0,0E0,0E0,0E0,0E0,0E0,0E0,0E0,0E0],"parents":[2147483647,0,0,1,1,2,2,3,3,4,4,5,5,6,6,7,7,8,8,9,9,10,10,12,12,13,13,14,14,16,16,17,17,19,19,20,20,21,21,22,22,23,23,24,24,25,25,26,26,29,29,31,31,33,33,36,36,37,37,39,39,40,40,41,41,42,42,43,43,44,44],"right_children":[2,4,6,8,10,12,14,16,18,20,22,-1,24,26,28,-1,30,32,-1,34,36,38,40,42,44,46,48,-1,-1,50,-1,52,-1,54,-1,-1,56,58,-1,60,62,64,66,68,70,-1,-1,-1,-1,-1,-1,-1,-1,-1,-1,-1,-1,-1,-1,-1,-1,-1,-1,-1,-1,-1,-1,-1,-1,-1,-1],"split_conditions":[1E0,1E0,1E0,1E0,1E0,1E0,1E0,0E0,1E0,1E0,1E0,2.0395397E-1,1E0,1E0,1E0,-2.7260163E-1,1E0,0E0,-2.71999E-1,1E0,1E0,1E0,1E0,1E0,1E0,0E0,1E0,1.3140541E-2,2.1869762E-1,0E0,1.6854866E-1,1E0,-2.1255329E-1,1E0,-2.2541721E-1,3.9252168E-1,1E0,1E0,2.0043425E-1,1E0,1E0,1E0,1E0,1E0,1E0,2.0517106E-1,5.4558057E-2,8.291904E-2,-3.395921E-1,-1.3813147E-1,3.713067E-2,1.6585573E-3,1.1654343E-1,1.6987118E-1,-1.6027188E-1,-2.0584303E-1,2.1469673E-2,-1.5053576E-1,1.5160266E-1,5.669704E-2,3.4748244E-1,4.2759728E-2,-1.934676E-1,-1.232785E-1,1.3072284E-1,-1.3663435E-1,-7.0701153E-3,-2.6812404E-1,-2.9796092E-3,6.917276E-2,-1.3361977E-1],"split_indices":[7,24,13,8,12,20,0,6,14,0,0,0,6,23,10,0,13,1,0,15,11,14,21,16,24,6,4,0,0,15,0,23,0,13,0,0,14,18,0,19,18,3,21,16,18,0,0,0,0,0,0,0,0,0,0,0,0,0,0,0,0,0,0,0,0,0,0,0,0,0,0],"split_type":[0,0,0,0,0,0,0,0,0,0,0,0,0,0,0,0,0,0,0,0,0,0,0,0,0,0,0,0,0,0,0,0,0,0,0,0,0,0,0,0,0,0,0,0,0,0,0,0,0,0,0,0,0,0,0,0,0,0,0,0,0,0,0,0,0,0,0,0,0,0,0],"sum_hessian":[3.8171384E2,1.457658E2,2.3594806E2,3.5280083E1,1.1048571E2,2.2142883E2,1.4519222E1,1.5236721E1,2.0043362E1,4.5668922E1,6.481679E1,1.8796079E0,2.1954922E2,6.691173E0,7.8280497E0,6.185256E0,9.051465E0,1.7924223E1,2.1191394E0,1.7646624E1,2.8022299E1,1.6170227E1,4.8646564E1,1.4362416E2,7.592507E1,3.5575113E0,3.1336617E0,1.8553901E0,5.9726596E0,6.9537115E0,2.0977538E0,1.6607145E1,1.3170768E0,1.613282E1,1.5138046E0,2.139566E0,2.5882732E1,1.3960261E1,2.2099667E0,3.2838066E0,4.5362755E1,1.4648352E1,1.289758E2,2.730637E1,4.86187E1,1.285135E0,2.2723763E0,1.0030568E0,2.1306047E0,5.0481687E0,1.9055429E0,5.6655293E0,1.0941616E1,1.403029E1,2.1025305E0,2.2950884E1,2.931849E0,1.2731688E1,1.2285733E0,1.116594E0,2.1672125E0,4.3312634E1,2.0501218E0,3.5678592E0,1.1080492E1,7.7139034E0,1.212619E2,3.2599387E0,2.4046432E1,4.6238953E1,2.379746E0],"tree_param":{"num_deleted":"0","num_feature":"25","num_nodes":"71","size_leaf_vector":"1"}},{"base_weights":[-3.1914702E-3,-1.7347664E-2,1.1364669E-1,1.01959676E-1,-3.0851427E-2,3.0372062E-1,-6.783185E-2,-1.4052993E-1,2.4474706E-1,-6.6000617E-1,-2.328709E-2,-1.04119726E-1,4.8041052E-1,-2.044416E-1,1.01104945E-1,-6.0660356E-1,1.709721E-1,2.6738834E-1,-9.419088E-3,-2.8861463E-1,-2.094749E-2,-1.8959567E-1,-1.8667597E-2,1.3662644E-1,-3.4297442E-1,-2.8254205E-1,6.3998926E-1,1.6592662E-1,-3.6829895E-1,2.6125917E-1,-3.110255E-1,-5.396772E-4,-2.90771E-1,-1.8391281E-1,4.7174555E-1,-3.107362E-1,1.0606185E-1,1.6663083E-1,-2.8093725E-2,-2.0011525E-1,3.1309884E-2,-5.2572405E-3,-1.2636639E-1,1.9459417E-1,7.4429405E-1,2.55734E-1,-5.946381E-1,1.4759402E-2,-5.368829E-1,3.384133E-2,-1.9400673E-1,5.612526E-2,1.8779188E-1,-3.0269256E-1,4.4973508E-2,-1.15370825E-1,1.2979141E-1,1.4917552E-1,-7.3765144E-2,-1.6702427E-1,-5.9412713E-3,-1.1585517E-1,1.332684E-1,2.1388751E-1,-1.6425665E-1,3.9016906E-2,2.8907254E-1,1.5934186E-1,-3.9671447E-2,-2.520662E-1,1.2415845E-3,-2.1740596E-1,-8.298634E-2],"categories":[],"categories_nodes":[],"categories_segments":[],"categories_sizes":[],"default_left":[0,0,0,0,0,0,0,0,0,0,0,0,0,0,0,0,0,0,0,0,0,0,0,0,0,0,0,0,0,0,0,0,0,0,0,0,0,0,0,0,0,0,0,0,0,0,0,0,0,0,0,0,0,0,0,0,0,0,0,0,0,0,0,0,0,0,0,0,0,0,0,0,0],"id":29,"left_children":[1,3,5,7,9,11,13,15,17,19,21,23,25,27,29,31,33,-1,35,-1,-1,-1,37,-1,39,41,43,-1,45,-1,47,-1,-1,49,51,53,55,57,59,-1,61,-1,-1,63,65,67,69,-1,71,-1,-1,-1,-1,-1,-1,-1,-1,-1,-1,-1,-1,-1,-1,-1,-1,-1,-1,-1,-1,-1,-1,-1,-1],"loss_changes":[6.250618E-1,5.458882E-1,1.4294755E0,1.2284116E0,1.4285178E0,1.5007532E0,5.217411E-1,2.051435E0,3.635028E0,5.6881785E-1,8.34085E-1,1.0793507E0,1.9126887E0,1.7348437E0,3.5626762E0,1.2252052E0,1.0283527E0,0E0,6.1862034E-1,0E0,0E0,0E0,5.279582E-1,0E0,6.772544E-1,1.0854682E-1,4.15915E-1,0E0,1.6692872E0,0E0,6.3619465E-1,0E0,0E0,7.2740996E-1,1.0482669E-1,1.7330371E0,2.2354624E0,2.119863E0,1.2420526E0,0E0,7.691087E-1,0E0,0E0,1.7922854E0,1.1442776E0,4.504488E-1,1.2068548E0,0E0,2.8802156E-2,0E0,0E0,0E0,0E0,0E0,0E0,0E0,0E0,0E0,0E0,0E0,0E0,0E0,0E0,0E0,0E0,0E0,0E0,0E0,0E0,0E0,0E0,0E0,0E0],"parents":[2147483647,0,0,1,1,2,2,3,3,4,4,5,5,6,6,7,7,8,8,9,9,10,10,11,11,12,12,13,13,14,14,15,15,16,16,18,18,22,22,24,24,25,25,26,26,28,28,30,30,33,33,34,34,35,35,36,36,37,37,38,38,40,40,43,43,44,44,45,45,46,46,48,48],"right_children":[2,4,6,8,10,12,14,16,18,20,22,24,26,28,30,32,34,-1,36,-1,-1,-1,38,-1,40,42,44,-1,46,-1,48,-1,-1,50,52,54,56,58,60,-1,62,-1,-1,64,66,68,70,-1,72,-1,-1,-1,-1,-1,-1,-1,-1,-1,-1,-1,-1,-1,-1,-1,-1,-1,-1,-1,-1,-1,-1,-1,-1],"split_conditions":[0E0,1E0,1E0,1E0,1E0,0E0,1E0,0E0,0E0,0E0,1E0,1E0,1E0,1E0,1E0,0E0,1E0,2.6738834E-1,0E0,-2.8861463E-1,-2.094749E-2,-1.8959567E-1,1E0,1.3662644E-1,1E0,1E0,0E0,1.6592662E-1,1E0,2.6125917E-1,0E0,-5.396772E-4,-2.90771E-1,1E0,1E0,1E0,1E0,1E0,1E0,-2.0011525E-1,1E0,-5.2572405E-3,-1.2636639E-1,0E0,1E0,1E0,1E0,1.4759402E-2,1E0,3.384133E-2,-1.9400673E-1,5.612526E-2,1.8779188E-1,-3.0269256E-1,4.4973508E-2,-1.15370825E-1,1.2979141E-1,1.4917552E-1,-7.3765144E-2,-1.6702427E-1,-5.9412713E-3,-1.1585517E-1,1.332684E-1,2.1388751E-1,-1.6425665E-1,3.9016906E-2,2.8907254E-1,1.5934186E-1,-3.9671447E-2,-2.520662E-1,1.2415845E-3,-2.1740596E-1,-8.298634E-2],"split_indices":[15,21,23,23,10,14,6,6,6,6,19,15,21,11,1,14,3,0,14,0,0,0,17,0,7,24,6,0,3,0,14,0,0,8,6,0,24,4,4,0,2,0,0,1,12,15,14,0,11,0,0,0,0,0,0,0,0,0,0,0,0,0,0,0,0,0,0,0,0,0,0,0,0],"split_type":[0,0,0,0,0,0,0,0,0,0,0,0,0,0,0,0,0,0,0,0,0,0,0,0,0,0,0,0,0,0,0,0,0,0,0,0,0,0,0,0,0,0,0,0,0,0,0,0,0,0,0,0,0,0,0,0,0,0,0,0,0,0,0,0,0,0,0,0,0,0,0,0,0],"sum_hessian":[3.7572098E2,3.3587738E2,3.9843613E1,3.3484795E1,3.0239258E2,1.9131937E1,2.0711676E1,1.2415648E1,2.1069147E1,2.5677853E0,2.998248E2,5.907291E0,1.3224647E1,1.1335292E1,9.376384E0,4.5942774E0,7.821371E0,5.2379985E0,1.583115E1,1.2817312E0,1.286054E0,1.2353662E0,2.9858942E2,1.4960215E0,4.4112697E0,2.1543E0,1.1070347E1,1.5934004E0,9.741892E0,2.881454E0,6.4949303E0,2.0988111E0,2.4954662E0,3.7661707E0,4.0552006E0,3.9178226E0,1.1913327E1,1.3646649E1,2.8494278E2,1.944987E0,2.4662824E0,1.1269836E0,1.0273165E0,2.644332E0,8.426015E0,2.5583818E0,7.18351E0,2.8043692E0,3.6905608E0,2.7556078E0,1.0105629E0,2.202687E0,1.8525133E0,1.0841519E0,2.8336709E0,4.6898932E0,7.223434E0,7.4612303E0,6.1854186E0,3.3775852E0,2.815652E2,1.2585403E0,1.2077421E0,1.5800004E0,1.0643314E0,2.6358168E0,5.790198E0,1.2804375E0,1.2779444E0,4.8082314E0,2.3752785E0,1.1071754E0,2.5833855E0],"tree_param":{"num_deleted":"0","num_feature":"25","num_nodes":"73","size_leaf_vector":"1"}},{"base_weights":[-2.7295705E-3,-5.2765116E-2,2.771335E-2,-4.5517522E-1,-3.6741756E-2,1.2180121E-2,2.5757292E-1,-1.4248048E-1,-2.4886256E-1,-2.0501404E-1,-2.4293205E-2,1.8523948E-1,5.1050787E-3,-2.2360763E-1,4.4280523E-1,-2.0216304E-1,1.28783E-1,-4.556277E-3,-2.7299753E-1,-7.892257E-2,3.529686E-2,-2.551934E-1,3.3887273E-1,1.337365E-1,2.036146E-1,4.6893388E-2,-1.2136296E-1,-2.5410834E-1,1.7601933E-1,-3.573254E-1,6.2845894E-3,4.6810345E-3,3.4722584E-1,1.6250098E-1,-5.5398484E-4,2.1124813E-1,-3.3324933E-1,1.3671395E-1,5.551748E-3,4.764127E-2,-7.862694E-2,1.2435403E-1,-7.3714204E-2,1.9881223E-1,-1.6742E-1,7.1823984E-2,-5.3955033E-2,-1.6815853E-1,8.308306E-3,2.3371825E-1,-2.4530124E-2,9.033527E-2,-2.5010255E-1],"categories":[],"categories_nodes":[],"categories_segments":[],"categories_sizes":[],"default_left":[0,0,0,0,0,0,0,0,0,0,0,0,0,0,0,0,0,0,0,0,0,0,0,0,0,0,0,0,0,0,0,0,0,0,0,0,0,0,0,0,0,0,0,0,0,0,0,0,0,0,0,0,0],"id":30,"left_children":[1,3,5,7,9,11,13,15,-1,-1,17,-1,19,21,23,-1,-1,25,27,29,31,-1,33,35,-1,37,39,-1,41,43,45,47,49,-1,-1,-1,51,-1,-1,-1,-1,-1,-1,-1,-1,-1,-1,-1,-1,-1,-1,-1,-1],"loss_changes":[5.692215E-1,8.946315E-1,8.26617E-1,5.0512016E-1,1.0863332E0,9.335549E-1,1.4057331E0,1.5376128E0,0E0,0E0,6.6370475E-1,0E0,5.5384684E-1,1.9598595E0,7.0552945E-1,0E0,0E0,7.660427E-1,2.7118785E0,1.3716083E0,1.5310373E0,0E0,2.230412E-1,1.8257482E0,0E0,1.0192807E0,1.5779592E0,0E0,7.4626505E-1,3.1432474E0,2.003618E0,1.9296641E0,2.7184749E0,0E0,0E0,0E0,1.5091176E0,0E0,0E0,0E0,0E0,0E0,0E0,0E0,0E0,0E0,0E0,0E0,0E0,0E0,0E0,0E0,0E0],"parents":[2147483647,0,0,1,1,2,2,3,3,4,4,5,5,6,6,7,7,10,10,12,12,13,13,14,14,17,17,18,18,19,19,20,20,22,22,23,23,25,25,26,26,28,28,29,29,30,30,31,31,32,32,36,36],"right_children":[2,4,6,8,10,12,14,16,-1,-1,18,-1,20,22,24,-1,-1,26,28,30,32,-1,34,36,-1,38,40,-1,42,44,46,48,50,-1,-1,-1,52,-1,-1,-1,-1,-1,-1,-1,-1,-1,-1,-1,-1,-1,-1,-1,-1],"split_conditions":[1E0,1E0,1E0,0E0,1E0,1E0,1E0,1E0,-2.4886256E-1,-2.0501404E-1,0E0,1.8523948E-1,1E0,0E0,1E0,-2.0216304E-1,1.28783E-1,1E0,1E0,1E0,0E0,-2.551934E-1,1E0,1E0,2.036146E-1,1E0,1E0,-2.5410834E-1,0E0,1E0,0E0,1E0,1E0,1.6250098E-1,-5.5398484E-4,2.1124813E-1,1E0,1.3671395E-1,5.551748E-3,4.764127E-2,-7.862694E-2,1.2435403E-1,-7.3714204E-2,1.9881223E-1,-1.6742E-1,7.1823984E-2,-5.3955033E-2,-1.6815853E-1,8.308306E-3,2.3371825E-1,-2.4530124E-2,9.033527E-2,-2.5010255E-1],"split_indices":[7,17,13,1,4,20,3,16,0,0,7,0,0,14,0,0,0,6,6,12,1,0,23,8,0,11,0,0,14,24,14,11,14,0,0,0,23,0,0,0,0,0,0,0,0,0,0,0,0,0,0,0,0],"split_type":[0,0,0,0,0,0,0,0,0,0,0,0,0,0,0,0,0,0,0,0,0,0,0,0,0,0,0,0,0,0,0,0,0,0,0,0,0,0,0,0,0,0,0,0,0,0,0,0,0,0,0,0,0],"sum_hessian":[3.7173422E2,1.4034006E2,2.3139415E2,4.324624E0,1.3601543E2,2.1773337E2,1.3660786E1,3.1086626E0,1.2159615E0,1.55103E0,1.344644E2,1.5188503E0,2.1621452E2,3.7394893E0,9.921296E0,1.5186288E0,1.5900339E0,1.2552146E2,8.942939E0,5.6725643E1,1.5948888E2,1.526018E0,2.2134714E0,4.973001E0,4.948295E0,8.755485E1,3.7966614E1,3.536024E0,5.4069147E0,1.2544519E1,4.418112E1,1.4615843E2,1.3330441E1,1.0178568E0,1.1956146E0,2.0099547E0,2.9630466E0,4.707476E0,8.2847374E1,1.2651271E1,2.5315344E1,3.4647093E0,1.9422054E0,1.6843712E0,1.0860148E1,1.948742E1,2.4693705E1,4.804431E0,1.41354E2,6.236552E0,7.09389E0,1.4822912E0,1.4807553E0],"tree_param":{"num_deleted":"0","num_feature":"25","num_nodes":"53","size_leaf_vector":"1"}},{"base_weights":[-1.6505923E-3,-4.4232816E-3,1.5206628E-1,-3.4109458E-1,7.96704E-4,-1.4284618E-1,1.7876016E-2,-3.5942357E-2,2.3424385E-2,-1.8623995E-2,-3.3048955E-1,2.0019564E-1,9.5518737E-4,-2.6219222E-1,2.636813E-4,1.1514118E-2,-4.5844E-1,3.3844543E-1,-7.093562E-2,-5.988893E-1,1.07206935E-2,1.9162154E-2,-2.722837E-1,-2.5108713E-1,6.757498E-3,9.625132E-2,-8.873756E-2,-1.5159483E-2,-1.9567527E-1,3.1849477E-2,1.9601071E-1,-1.5263206E-1,1.4884467E-1,-3.0935185E-2,-2.5175294E-1,-6.9676735E-3,4.170447E-2],"categories":[],"categories_nodes":[],"categories_segments":[],"categories_sizes":[],"default_left":[0,0,0,0,0,0,0,0,0,0,0,0,0,0,0,0,0,0,0,0,0,0,0,0,0,0,0,0,0,0,0,0,0,0,0,0,0],"id":31,"left_children":[1,3,-1,5,7,-1,-1,9,11,13,15,17,19,21,23,25,27,29,31,33,35,-1,-1,-1,-1,-1,-1,-1,-1,-1,-1,-1,-1,-1,-1,-1,-1],"loss_changes":[5.240224E-1,6.4882416E-1,0E0,3.3341074E-1,3.0377486E-1,0E0,0E0,7.043529E-1,8.979131E-1,6.101373E-1,3.411345E-1,9.796605E-1,1.1874614E0,2.0665803E0,2.3311584E0,3.8626197E-1,4.1054487E-1,1.1784776E0,2.5954306E0,3.0031872E-1,8.71514E-1,0E0,0E0,0E0,0E0,0E0,0E0,0E0,0E0,0E0,0E0,0E0,0E0,0E0,0E0,0E0,0E0],"parents":[2147483647,0,0,1,1,3,3,4,4,7,7,8,8,9,9,10,10,11,11,12,12,13,13,14,14,15,15,16,16,17,17,18,18,19,19,20,20],"right_children":[2,4,-1,6,8,-1,-1,10,12,14,16,18,20,22,24,26,28,30,32,34,36,-1,-1,-1,-1,-1,-1,-1,-1,-1,-1,-1,-1,-1,-1,-1,-1],"split_conditions":[1E0,0E0,1.5206628E-1,1E0,1E0,-1.4284618E-1,1.7876016E-2,1E0,1E0,1E0,1E0,1E0,1E0,1E0,1E0,1E0,1E0,1E0,1E0,1E0,1E0,1.9162154E-2,-2.722837E-1,-2.5108713E-1,6.757498E-3,9.625132E-2,-8.873756E-2,-1.5159483E-2,-1.9567527E-1,3.1849477E-2,1.9601071E-1,-1.5263206E-1,1.4884467E-1,-3.0935185E-2,-2.5175294E-1,-6.9676735E-3,4.170447E-2],"split_indices":[5,13,0,6,7,0,0,18,9,9,11,14,21,16,16,23,0,6,19,6,14,0,0,0,0,0,0,0,0,0,0,0,0,0,0,0,0],"split_type":[0,0,0,0,0,0,0,0,0,0,0,0,0,0,0,0,0,0,0,0,0,0,0,0,0,0,0,0,0,0,0,0,0,0,0,0,0],"sum_hessian":[3.6905212E2,3.6803677E2,1.0153356E0,4.6367726E0,3.634E2,3.3269744E0,1.3097984E0,1.3828592E2,2.2511407E2,1.3161089E2,6.6750383E0,2.4495058E1,2.0061902E2,8.544366E0,1.2306652E2,2.0651176E0,4.609921E0,1.605854E1,8.436518E0,2.2473755E0,1.9837164E2,6.2751813E0,2.2691848E0,2.2396355E0,1.2082689E2,1.0072356E0,1.057882E0,1.8909072E0,2.7190135E0,1.0011441E1,6.0470986E0,4.81881E0,3.6177084E0,1.2002021E0,1.0471733E0,1.575131E2,4.0858543E1],"tree_param":{"num_deleted":"0","num_feature":"25","num_nodes":"37","size_leaf_vector":"1"}},{"base_weights":[-2.9936412E-3,-1.3560183E-2,9.018093E-2,-1.2311643E-1,-3.844277E-3,-1.4555393E-1,2.0409743E-1,1.2573002E-1,-3.5767168E-1,1.5857694E-1,-1.7050402E-2,3.7033305E-1,-3.769352E-1,3.920117E-1,-2.0378346E-2,7.122052E-1,-1.7316666E-1,-6.5952075E-1,9.27479E-2,-1.7774293E-1,3.1313342E-1,-1.6674316E-1,-1.2694484E-2,1.9259462E-1,-1.773729E-3,5.5005994E-2,-5.066469E-1,1.980862E-2,6.158452E-1,4.0246546E-1,-2.1754923E-1,7.208595E-4,2.69034E-1,-4.3201974E-1,1.724522E-1,-3.6121684E-1,-3.593423E-1,3.873661E-1,-1.7234817E-1,-7.1470165E-1,3.790896E-1,2.56948E-1,8.09555E-2,2.0528588E-1,-1.9917436E-2,-6.35982E-1,1.900025E-2,-2.4219038E-1,1.7211765E-1,8.3402164E-2,2.2800747E-1,-1.2796551E-1,2.3998295E-1,-3.51063E-1,1.5817173E-1,-5.0922513E-2,-1.8951252E-1,-4.0969267E-2,1.18926E-1,-1.9007266E-1,9.392844E-2,1.5317564E-1,1.1031035E-2,-2.8729731E-2,-3.299023E-1,1.8445158E-1,2.6613388E-2,-7.5511284E-2,8.7575376E-2,8.198354E-3,1.8747781E-1,-1.3584399E-1,-3.927571E-3,-2.3884136E-2,-2.2640255E-1,6.0403388E-2,-2.2075175E-1,-1.7706025E-2,-1.5602475E-1,-3.565257E-2,1.08698964E-1],"categories":[],"categories_nodes":[],"categories_segments":[],"categories_sizes":[],"default_left":[0,0,0,0,0,0,0,0,0,0,0,0,0,0,0,0,0,0,0,0,0,0,0,0,0,0,0,0,0,0,0,0,0,0,0,0,0,0,0,0,0,0,0,0,0,0,0,0,0,0,0,0,0,0,0,0,0,0,0,0,0,0,0,0,0,0,0,0,0,0,0,0,0,0,0,0,0,0,0,0,0],"id":32,"left_children":[1,3,5,7,9,11,13,15,17,19,21,23,25,27,29,31,33,35,37,39,41,-1,43,-1,-1,-1,45,47,49,51,53,-1,-1,55,57,59,-1,61,-1,63,65,-1,67,69,71,73,-1,75,-1,-1,-1,-1,-1,77,79,-1,-1,-1,-1,-1,-1,-1,-1,-1,-1,-1,-1,-1,-1,-1,-1,-1,-1,-1,-1,-1,-1,-1,-1,-1,-1],"loss_changes":[3.6243895E-1,3.5120693E-1,1.0367448E0,1.613988E0,6.5586203E-1,1.6676433E0,1.0920291E0,2.5394683E0,1.9779336E0,1.2509127E0,6.5594846E-1,4.60473E-1,7.7119195E-1,1.1573384E0,1.1431252E0,6.33085E-1,9.6328795E-1,9.42564E-1,1.5069264E0,2.6263871E0,1.9638548E0,0E0,4.4694117E-1,0E0,0E0,0E0,6.1855507E-1,1.053977E0,2.1408963E-1,1.783562E0,5.212358E-1,0E0,0E0,2.0521176E-1,3.9803705E-1,1.4733797E0,0E0,2.0282704E-1,0E0,9.328661E-1,2.5493324E-1,0E0,9.4340986E-1,6.632191E-1,8.011976E-1,3.681121E-1,0E0,1.2393209E0,0E0,0E0,0E0,0E0,0E0,3.2274246E-1,2.1970513E-1,0E0,0E0,0E0,0E0,0E0,0E0,0E0,0E0,0E0,0E0,0E0,0E0,0E0,0E0,0E0,0E0,0E0,0E0,0E0,0E0,0E0,0E0,0E0,0E0,0E0,0E0],"parents":[2147483647,0,0,1,1,2,2,3,3,4,4,5,5,6,6,7,7,8,8,9,9,10,10,11,11,12,12,13,13,14,14,15,15,16,16,17,17,18,18,19,19,20,20,22,22,26,26,27,27,28,28,29,29,30,30,33,33,34,34,35,35,37,37,39,39,40,40,42,42,43,43,44,44,45,45,47,47,53,53,54,54],"right_children":[2,4,6,8,10,12,14,16,18,20,22,24,26,28,30,32,34,36,38,40,42,-1,44,-1,-1,-1,46,48,50,52,54,-1,-1,56,58,60,-1,62,-1,64,66,-1,68,70,72,74,-1,76,-1,-1,-1,-1,-1,78,80,-1,-1,-1,-1,-1,-1,-1,-1,-1,-1,-1,-1,-1,-1,-1,-1,-1,-1,-1,-1,-1,-1,-1,-1,-1,-1],"split_conditions":[0E0,1E0,0E0,1E0,1E0,1E0,1E0,0E0,1E0,1E0,1E0,1E0,1E0,1E0,1E0,1E0,1E0,1E0,1E0,0E0,0E0,-1.6674316E-1,1E0,1.9259462E-1,-1.773729E-3,5.5005994E-2,1E0,1E0,1E0,1E0,1E0,7.208595E-4,2.69034E-1,0E0,0E0,1E0,-3.593423E-1,1E0,-1.7234817E-1,0E0,1E0,2.56948E-1,1E0,1E0,1E0,1E0,1.900025E-2,1E0,1.7211765E-1,8.3402164E-2,2.2800747E-1,-1.2796551E-1,2.3998295E-1,0E0,1E0,-5.0922513E-2,-1.8951252E-1,-4.0969267E-2,1.18926E-1,-1.9007266E-1,9.392844E-2,1.5317564E-1,1.1031035E-2,-2.8729731E-2,-3.299023E-1,1.8445158E-1,2.6613388E-2,-7.5511284E-2,8.7575376E-2,